<?xml version="1.0" encoding="UTF-8" standalone="yes"?>
<PMML xmlns="http://www.dmg.org/PMML-4_3" version="4.3">
	<Header>
		<Application name="JPMML-SparkML-Package" version="1.4-SNAPSHOT"/>
		<Timestamp>2018-05-19T15:57:10Z</Timestamp>
	</Header>
	<DataDictionary>
		<DataField name="_c12" optype="continuous" dataType="integer"/>
		<DataField name="_c13" optype="continuous" dataType="integer"/>
		<DataField name="_c14" optype="continuous" dataType="integer"/>
		<DataField name="_c15" optype="continuous" dataType="integer"/>
		<DataField name="_c32" optype="continuous" dataType="integer"/>
		<DataField name="_c33" optype="continuous" dataType="integer"/>
		<DataField name="_c34" optype="continuous" dataType="integer"/>
		<DataField name="_c35" optype="continuous" dataType="integer"/>
		<DataField name="_c36" optype="continuous" dataType="integer"/>
		<DataField name="_c37" optype="continuous" dataType="integer"/>
		<DataField name="_c38" optype="continuous" dataType="integer"/>
		<DataField name="_c39" optype="continuous" dataType="integer"/>
		<DataField name="_c40" optype="continuous" dataType="integer"/>
		<DataField name="_c41" optype="continuous" dataType="integer"/>
		<DataField name="_c42" optype="continuous" dataType="integer"/>
		<DataField name="_c43" optype="continuous" dataType="integer"/>
		<DataField name="_c44" optype="continuous" dataType="integer"/>
		<DataField name="_c45" optype="continuous" dataType="integer"/>
		<DataField name="_c46" optype="continuous" dataType="integer"/>
		<DataField name="_c47" optype="continuous" dataType="integer"/>
		<DataField name="_c48" optype="continuous" dataType="integer"/>
		<DataField name="_c49" optype="continuous" dataType="integer"/>
		<DataField name="_c50" optype="continuous" dataType="integer"/>
		<DataField name="_c51" optype="continuous" dataType="integer"/>
		<DataField name="_c58" optype="continuous" dataType="integer"/>
		<DataField name="_c59" optype="continuous" dataType="integer"/>
		<DataField name="_c60" optype="continuous" dataType="integer"/>
		<DataField name="_c61" optype="continuous" dataType="integer"/>
		<DataField name="_c62" optype="continuous" dataType="integer"/>
		<DataField name="_c63" optype="continuous" dataType="integer"/>
		<DataField name="_c64" optype="continuous" dataType="integer"/>
		<DataField name="_c65" optype="continuous" dataType="integer"/>
		<DataField name="_c66" optype="continuous" dataType="integer"/>
		<DataField name="_c67" optype="continuous" dataType="integer"/>
		<DataField name="_c68" optype="continuous" dataType="integer"/>
		<DataField name="_c69" optype="continuous" dataType="integer"/>
		<DataField name="_c70" optype="continuous" dataType="integer"/>
		<DataField name="_c71" optype="continuous" dataType="integer"/>
		<DataField name="_c72" optype="continuous" dataType="integer"/>
		<DataField name="_c73" optype="continuous" dataType="integer"/>
		<DataField name="_c74" optype="continuous" dataType="integer"/>
		<DataField name="_c75" optype="continuous" dataType="integer"/>
		<DataField name="_c76" optype="continuous" dataType="integer"/>
		<DataField name="_c77" optype="continuous" dataType="integer"/>
		<DataField name="_c78" optype="continuous" dataType="integer"/>
		<DataField name="_c79" optype="continuous" dataType="integer"/>
		<DataField name="_c80" optype="continuous" dataType="integer"/>
		<DataField name="_c81" optype="continuous" dataType="integer"/>
		<DataField name="_c86" optype="continuous" dataType="integer"/>
		<DataField name="_c87" optype="continuous" dataType="integer"/>
		<DataField name="_c88" optype="continuous" dataType="integer"/>
		<DataField name="_c89" optype="continuous" dataType="integer"/>
		<DataField name="_c90" optype="continuous" dataType="integer"/>
		<DataField name="_c91" optype="continuous" dataType="integer"/>
		<DataField name="_c92" optype="continuous" dataType="integer"/>
		<DataField name="_c93" optype="continuous" dataType="integer"/>
		<DataField name="_c94" optype="continuous" dataType="integer"/>
		<DataField name="_c95" optype="continuous" dataType="integer"/>
		<DataField name="_c96" optype="continuous" dataType="integer"/>
		<DataField name="_c97" optype="continuous" dataType="integer"/>
		<DataField name="_c98" optype="continuous" dataType="integer"/>
		<DataField name="_c99" optype="continuous" dataType="integer"/>
		<DataField name="_c100" optype="continuous" dataType="integer"/>
		<DataField name="_c101" optype="continuous" dataType="integer"/>
		<DataField name="_c102" optype="continuous" dataType="integer"/>
		<DataField name="_c103" optype="continuous" dataType="integer"/>
		<DataField name="_c104" optype="continuous" dataType="integer"/>
		<DataField name="_c105" optype="continuous" dataType="integer"/>
		<DataField name="_c106" optype="continuous" dataType="integer"/>
		<DataField name="_c107" optype="continuous" dataType="integer"/>
		<DataField name="_c108" optype="continuous" dataType="integer"/>
		<DataField name="_c109" optype="continuous" dataType="integer"/>
		<DataField name="_c110" optype="continuous" dataType="integer"/>
		<DataField name="_c113" optype="continuous" dataType="integer"/>
		<DataField name="_c114" optype="continuous" dataType="integer"/>
		<DataField name="_c115" optype="continuous" dataType="integer"/>
		<DataField name="_c116" optype="continuous" dataType="integer"/>
		<DataField name="_c117" optype="continuous" dataType="integer"/>
		<DataField name="_c118" optype="continuous" dataType="integer"/>
		<DataField name="_c119" optype="continuous" dataType="integer"/>
		<DataField name="_c120" optype="continuous" dataType="integer"/>
		<DataField name="_c121" optype="continuous" dataType="integer"/>
		<DataField name="_c122" optype="continuous" dataType="integer"/>
		<DataField name="_c123" optype="continuous" dataType="integer"/>
		<DataField name="_c124" optype="continuous" dataType="integer"/>
		<DataField name="_c125" optype="continuous" dataType="integer"/>
		<DataField name="_c126" optype="continuous" dataType="integer"/>
		<DataField name="_c127" optype="continuous" dataType="integer"/>
		<DataField name="_c128" optype="continuous" dataType="integer"/>
		<DataField name="_c129" optype="continuous" dataType="integer"/>
		<DataField name="_c130" optype="continuous" dataType="integer"/>
		<DataField name="_c131" optype="continuous" dataType="integer"/>
		<DataField name="_c132" optype="continuous" dataType="integer"/>
		<DataField name="_c133" optype="continuous" dataType="integer"/>
		<DataField name="_c134" optype="continuous" dataType="integer"/>
		<DataField name="_c135" optype="continuous" dataType="integer"/>
		<DataField name="_c136" optype="continuous" dataType="integer"/>
		<DataField name="_c137" optype="continuous" dataType="integer"/>
		<DataField name="_c138" optype="continuous" dataType="integer"/>
		<DataField name="_c139" optype="continuous" dataType="integer"/>
		<DataField name="_c142" optype="continuous" dataType="integer"/>
		<DataField name="_c143" optype="continuous" dataType="integer"/>
		<DataField name="_c144" optype="continuous" dataType="integer"/>
		<DataField name="_c145" optype="continuous" dataType="integer"/>
		<DataField name="_c146" optype="continuous" dataType="integer"/>
		<DataField name="_c147" optype="continuous" dataType="integer"/>
		<DataField name="_c148" optype="continuous" dataType="integer"/>
		<DataField name="_c149" optype="continuous" dataType="integer"/>
		<DataField name="_c150" optype="continuous" dataType="integer"/>
		<DataField name="_c151" optype="continuous" dataType="integer"/>
		<DataField name="_c152" optype="continuous" dataType="integer"/>
		<DataField name="_c153" optype="continuous" dataType="integer"/>
		<DataField name="_c154" optype="continuous" dataType="integer"/>
		<DataField name="_c155" optype="continuous" dataType="integer"/>
		<DataField name="_c156" optype="continuous" dataType="integer"/>
		<DataField name="_c157" optype="continuous" dataType="integer"/>
		<DataField name="_c158" optype="continuous" dataType="integer"/>
		<DataField name="_c159" optype="continuous" dataType="integer"/>
		<DataField name="_c160" optype="continuous" dataType="integer"/>
		<DataField name="_c161" optype="continuous" dataType="integer"/>
		<DataField name="_c162" optype="continuous" dataType="integer"/>
		<DataField name="_c163" optype="continuous" dataType="integer"/>
		<DataField name="_c164" optype="continuous" dataType="integer"/>
		<DataField name="_c165" optype="continuous" dataType="integer"/>
		<DataField name="_c166" optype="continuous" dataType="integer"/>
		<DataField name="_c167" optype="continuous" dataType="integer"/>
		<DataField name="_c169" optype="continuous" dataType="integer"/>
		<DataField name="_c170" optype="continuous" dataType="integer"/>
		<DataField name="_c171" optype="continuous" dataType="integer"/>
		<DataField name="_c172" optype="continuous" dataType="integer"/>
		<DataField name="_c173" optype="continuous" dataType="integer"/>
		<DataField name="_c174" optype="continuous" dataType="integer"/>
		<DataField name="_c175" optype="continuous" dataType="integer"/>
		<DataField name="_c176" optype="continuous" dataType="integer"/>
		<DataField name="_c177" optype="continuous" dataType="integer"/>
		<DataField name="_c178" optype="continuous" dataType="integer"/>
		<DataField name="_c179" optype="continuous" dataType="integer"/>
		<DataField name="_c180" optype="continuous" dataType="integer"/>
		<DataField name="_c181" optype="continuous" dataType="integer"/>
		<DataField name="_c182" optype="continuous" dataType="integer"/>
		<DataField name="_c183" optype="continuous" dataType="integer"/>
		<DataField name="_c184" optype="continuous" dataType="integer"/>
		<DataField name="_c185" optype="continuous" dataType="integer"/>
		<DataField name="_c186" optype="continuous" dataType="integer"/>
		<DataField name="_c187" optype="continuous" dataType="integer"/>
		<DataField name="_c188" optype="continuous" dataType="integer"/>
		<DataField name="_c189" optype="continuous" dataType="integer"/>
		<DataField name="_c190" optype="continuous" dataType="integer"/>
		<DataField name="_c191" optype="continuous" dataType="integer"/>
		<DataField name="_c192" optype="continuous" dataType="integer"/>
		<DataField name="_c193" optype="continuous" dataType="integer"/>
		<DataField name="_c194" optype="continuous" dataType="integer"/>
		<DataField name="_c195" optype="continuous" dataType="integer"/>
		<DataField name="_c196" optype="continuous" dataType="integer"/>
		<DataField name="_c197" optype="continuous" dataType="integer"/>
		<DataField name="_c198" optype="continuous" dataType="integer"/>
		<DataField name="_c199" optype="continuous" dataType="integer"/>
		<DataField name="_c200" optype="continuous" dataType="integer"/>
		<DataField name="_c201" optype="continuous" dataType="integer"/>
		<DataField name="_c202" optype="continuous" dataType="integer"/>
		<DataField name="_c203" optype="continuous" dataType="integer"/>
		<DataField name="_c204" optype="continuous" dataType="integer"/>
		<DataField name="_c205" optype="continuous" dataType="integer"/>
		<DataField name="_c206" optype="continuous" dataType="integer"/>
		<DataField name="_c207" optype="continuous" dataType="integer"/>
		<DataField name="_c208" optype="continuous" dataType="integer"/>
		<DataField name="_c209" optype="continuous" dataType="integer"/>
		<DataField name="_c210" optype="continuous" dataType="integer"/>
		<DataField name="_c211" optype="continuous" dataType="integer"/>
		<DataField name="_c212" optype="continuous" dataType="integer"/>
		<DataField name="_c213" optype="continuous" dataType="integer"/>
		<DataField name="_c214" optype="continuous" dataType="integer"/>
		<DataField name="_c215" optype="continuous" dataType="integer"/>
		<DataField name="_c216" optype="continuous" dataType="integer"/>
		<DataField name="_c217" optype="continuous" dataType="integer"/>
		<DataField name="_c218" optype="continuous" dataType="integer"/>
		<DataField name="_c219" optype="continuous" dataType="integer"/>
		<DataField name="_c220" optype="continuous" dataType="integer"/>
		<DataField name="_c221" optype="continuous" dataType="integer"/>
		<DataField name="_c222" optype="continuous" dataType="integer"/>
		<DataField name="_c223" optype="continuous" dataType="integer"/>
		<DataField name="_c224" optype="continuous" dataType="integer"/>
		<DataField name="_c225" optype="continuous" dataType="integer"/>
		<DataField name="_c226" optype="continuous" dataType="integer"/>
		<DataField name="_c227" optype="continuous" dataType="integer"/>
		<DataField name="_c228" optype="continuous" dataType="integer"/>
		<DataField name="_c229" optype="continuous" dataType="integer"/>
		<DataField name="_c230" optype="continuous" dataType="integer"/>
		<DataField name="_c231" optype="continuous" dataType="integer"/>
		<DataField name="_c232" optype="continuous" dataType="integer"/>
		<DataField name="_c233" optype="continuous" dataType="integer"/>
		<DataField name="_c234" optype="continuous" dataType="integer"/>
		<DataField name="_c235" optype="continuous" dataType="integer"/>
		<DataField name="_c236" optype="continuous" dataType="integer"/>
		<DataField name="_c237" optype="continuous" dataType="integer"/>
		<DataField name="_c238" optype="continuous" dataType="integer"/>
		<DataField name="_c239" optype="continuous" dataType="integer"/>
		<DataField name="_c240" optype="continuous" dataType="integer"/>
		<DataField name="_c241" optype="continuous" dataType="integer"/>
		<DataField name="_c242" optype="continuous" dataType="integer"/>
		<DataField name="_c243" optype="continuous" dataType="integer"/>
		<DataField name="_c244" optype="continuous" dataType="integer"/>
		<DataField name="_c245" optype="continuous" dataType="integer"/>
		<DataField name="_c246" optype="continuous" dataType="integer"/>
		<DataField name="_c247" optype="continuous" dataType="integer"/>
		<DataField name="_c248" optype="continuous" dataType="integer"/>
		<DataField name="_c249" optype="continuous" dataType="integer"/>
		<DataField name="_c250" optype="continuous" dataType="integer"/>
		<DataField name="_c251" optype="continuous" dataType="integer"/>
		<DataField name="_c252" optype="continuous" dataType="integer"/>
		<DataField name="_c253" optype="continuous" dataType="integer"/>
		<DataField name="_c254" optype="continuous" dataType="integer"/>
		<DataField name="_c255" optype="continuous" dataType="integer"/>
		<DataField name="_c256" optype="continuous" dataType="integer"/>
		<DataField name="_c257" optype="continuous" dataType="integer"/>
		<DataField name="_c258" optype="continuous" dataType="integer"/>
		<DataField name="_c259" optype="continuous" dataType="integer"/>
		<DataField name="_c260" optype="continuous" dataType="integer"/>
		<DataField name="_c261" optype="continuous" dataType="integer"/>
		<DataField name="_c262" optype="continuous" dataType="integer"/>
		<DataField name="_c263" optype="continuous" dataType="integer"/>
		<DataField name="_c264" optype="continuous" dataType="integer"/>
		<DataField name="_c265" optype="continuous" dataType="integer"/>
		<DataField name="_c266" optype="continuous" dataType="integer"/>
		<DataField name="_c267" optype="continuous" dataType="integer"/>
		<DataField name="_c268" optype="continuous" dataType="integer"/>
		<DataField name="_c269" optype="continuous" dataType="integer"/>
		<DataField name="_c270" optype="continuous" dataType="integer"/>
		<DataField name="_c271" optype="continuous" dataType="integer"/>
		<DataField name="_c272" optype="continuous" dataType="integer"/>
		<DataField name="_c273" optype="continuous" dataType="integer"/>
		<DataField name="_c274" optype="continuous" dataType="integer"/>
		<DataField name="_c275" optype="continuous" dataType="integer"/>
		<DataField name="_c276" optype="continuous" dataType="integer"/>
		<DataField name="_c277" optype="continuous" dataType="integer"/>
		<DataField name="_c278" optype="continuous" dataType="integer"/>
		<DataField name="_c279" optype="continuous" dataType="integer"/>
		<DataField name="_c280" optype="continuous" dataType="integer"/>
		<DataField name="_c281" optype="continuous" dataType="integer"/>
		<DataField name="_c282" optype="continuous" dataType="integer"/>
		<DataField name="_c283" optype="continuous" dataType="integer"/>
		<DataField name="_c284" optype="continuous" dataType="integer"/>
		<DataField name="_c285" optype="continuous" dataType="integer"/>
		<DataField name="_c286" optype="continuous" dataType="integer"/>
		<DataField name="_c287" optype="continuous" dataType="integer"/>
		<DataField name="_c288" optype="continuous" dataType="integer"/>
		<DataField name="_c289" optype="continuous" dataType="integer"/>
		<DataField name="_c290" optype="continuous" dataType="integer"/>
		<DataField name="_c291" optype="continuous" dataType="integer"/>
		<DataField name="_c292" optype="continuous" dataType="integer"/>
		<DataField name="_c293" optype="continuous" dataType="integer"/>
		<DataField name="_c294" optype="continuous" dataType="integer"/>
		<DataField name="_c295" optype="continuous" dataType="integer"/>
		<DataField name="_c296" optype="continuous" dataType="integer"/>
		<DataField name="_c297" optype="continuous" dataType="integer"/>
		<DataField name="_c298" optype="continuous" dataType="integer"/>
		<DataField name="_c299" optype="continuous" dataType="integer"/>
		<DataField name="_c300" optype="continuous" dataType="integer"/>
		<DataField name="_c301" optype="continuous" dataType="integer"/>
		<DataField name="_c302" optype="continuous" dataType="integer"/>
		<DataField name="_c303" optype="continuous" dataType="integer"/>
		<DataField name="_c304" optype="continuous" dataType="integer"/>
		<DataField name="_c305" optype="continuous" dataType="integer"/>
		<DataField name="_c306" optype="continuous" dataType="integer"/>
		<DataField name="_c307" optype="continuous" dataType="integer"/>
		<DataField name="_c308" optype="continuous" dataType="integer"/>
		<DataField name="_c309" optype="continuous" dataType="integer"/>
		<DataField name="_c310" optype="continuous" dataType="integer"/>
		<DataField name="_c311" optype="continuous" dataType="integer"/>
		<DataField name="_c312" optype="continuous" dataType="integer"/>
		<DataField name="_c313" optype="continuous" dataType="integer"/>
		<DataField name="_c314" optype="continuous" dataType="integer"/>
		<DataField name="_c315" optype="continuous" dataType="integer"/>
		<DataField name="_c316" optype="continuous" dataType="integer"/>
		<DataField name="_c317" optype="continuous" dataType="integer"/>
		<DataField name="_c318" optype="continuous" dataType="integer"/>
		<DataField name="_c319" optype="continuous" dataType="integer"/>
		<DataField name="_c320" optype="continuous" dataType="integer"/>
		<DataField name="_c321" optype="continuous" dataType="integer"/>
		<DataField name="_c322" optype="continuous" dataType="integer"/>
		<DataField name="_c323" optype="continuous" dataType="integer"/>
		<DataField name="_c324" optype="continuous" dataType="integer"/>
		<DataField name="_c325" optype="continuous" dataType="integer"/>
		<DataField name="_c326" optype="continuous" dataType="integer"/>
		<DataField name="_c327" optype="continuous" dataType="integer"/>
		<DataField name="_c328" optype="continuous" dataType="integer"/>
		<DataField name="_c329" optype="continuous" dataType="integer"/>
		<DataField name="_c330" optype="continuous" dataType="integer"/>
		<DataField name="_c331" optype="continuous" dataType="integer"/>
		<DataField name="_c332" optype="continuous" dataType="integer"/>
		<DataField name="_c333" optype="continuous" dataType="integer"/>
		<DataField name="_c334" optype="continuous" dataType="integer"/>
		<DataField name="_c335" optype="continuous" dataType="integer"/>
		<DataField name="_c336" optype="continuous" dataType="integer"/>
		<DataField name="_c337" optype="continuous" dataType="integer"/>
		<DataField name="_c338" optype="continuous" dataType="integer"/>
		<DataField name="_c339" optype="continuous" dataType="integer"/>
		<DataField name="_c340" optype="continuous" dataType="integer"/>
		<DataField name="_c341" optype="continuous" dataType="integer"/>
		<DataField name="_c342" optype="continuous" dataType="integer"/>
		<DataField name="_c343" optype="continuous" dataType="integer"/>
		<DataField name="_c344" optype="continuous" dataType="integer"/>
		<DataField name="_c345" optype="continuous" dataType="integer"/>
		<DataField name="_c346" optype="continuous" dataType="integer"/>
		<DataField name="_c347" optype="continuous" dataType="integer"/>
		<DataField name="_c348" optype="continuous" dataType="integer"/>
		<DataField name="_c349" optype="continuous" dataType="integer"/>
		<DataField name="_c350" optype="continuous" dataType="integer"/>
		<DataField name="_c351" optype="continuous" dataType="integer"/>
		<DataField name="_c352" optype="continuous" dataType="integer"/>
		<DataField name="_c353" optype="continuous" dataType="integer"/>
		<DataField name="_c354" optype="continuous" dataType="integer"/>
		<DataField name="_c355" optype="continuous" dataType="integer"/>
		<DataField name="_c356" optype="continuous" dataType="integer"/>
		<DataField name="_c357" optype="continuous" dataType="integer"/>
		<DataField name="_c358" optype="continuous" dataType="integer"/>
		<DataField name="_c359" optype="continuous" dataType="integer"/>
		<DataField name="_c360" optype="continuous" dataType="integer"/>
		<DataField name="_c361" optype="continuous" dataType="integer"/>
		<DataField name="_c362" optype="continuous" dataType="integer"/>
		<DataField name="_c363" optype="continuous" dataType="integer"/>
		<DataField name="_c364" optype="continuous" dataType="integer"/>
		<DataField name="_c365" optype="continuous" dataType="integer"/>
		<DataField name="_c366" optype="continuous" dataType="integer"/>
		<DataField name="_c367" optype="continuous" dataType="integer"/>
		<DataField name="_c368" optype="continuous" dataType="integer"/>
		<DataField name="_c369" optype="continuous" dataType="integer"/>
		<DataField name="_c370" optype="continuous" dataType="integer"/>
		<DataField name="_c371" optype="continuous" dataType="integer"/>
		<DataField name="_c372" optype="continuous" dataType="integer"/>
		<DataField name="_c373" optype="continuous" dataType="integer"/>
		<DataField name="_c374" optype="continuous" dataType="integer"/>
		<DataField name="_c375" optype="continuous" dataType="integer"/>
		<DataField name="_c376" optype="continuous" dataType="integer"/>
		<DataField name="_c377" optype="continuous" dataType="integer"/>
		<DataField name="_c378" optype="continuous" dataType="integer"/>
		<DataField name="_c379" optype="continuous" dataType="integer"/>
		<DataField name="_c380" optype="continuous" dataType="integer"/>
		<DataField name="_c381" optype="continuous" dataType="integer"/>
		<DataField name="_c382" optype="continuous" dataType="integer"/>
		<DataField name="_c383" optype="continuous" dataType="integer"/>
		<DataField name="_c384" optype="continuous" dataType="integer"/>
		<DataField name="_c385" optype="continuous" dataType="integer"/>
		<DataField name="_c386" optype="continuous" dataType="integer"/>
		<DataField name="_c387" optype="continuous" dataType="integer"/>
		<DataField name="_c388" optype="continuous" dataType="integer"/>
		<DataField name="_c389" optype="continuous" dataType="integer"/>
		<DataField name="_c390" optype="continuous" dataType="integer"/>
		<DataField name="_c391" optype="continuous" dataType="integer"/>
		<DataField name="_c392" optype="continuous" dataType="integer"/>
		<DataField name="_c393" optype="continuous" dataType="integer"/>
		<DataField name="_c394" optype="continuous" dataType="integer"/>
		<DataField name="_c395" optype="continuous" dataType="integer"/>
		<DataField name="_c396" optype="continuous" dataType="integer"/>
		<DataField name="_c397" optype="continuous" dataType="integer"/>
		<DataField name="_c398" optype="continuous" dataType="integer"/>
		<DataField name="_c399" optype="continuous" dataType="integer"/>
		<DataField name="_c400" optype="continuous" dataType="integer"/>
		<DataField name="_c401" optype="continuous" dataType="integer"/>
		<DataField name="_c402" optype="continuous" dataType="integer"/>
		<DataField name="_c403" optype="continuous" dataType="integer"/>
		<DataField name="_c404" optype="continuous" dataType="integer"/>
		<DataField name="_c405" optype="continuous" dataType="integer"/>
		<DataField name="_c406" optype="continuous" dataType="integer"/>
		<DataField name="_c407" optype="continuous" dataType="integer"/>
		<DataField name="_c408" optype="continuous" dataType="integer"/>
		<DataField name="_c409" optype="continuous" dataType="integer"/>
		<DataField name="_c410" optype="continuous" dataType="integer"/>
		<DataField name="_c411" optype="continuous" dataType="integer"/>
		<DataField name="_c412" optype="continuous" dataType="integer"/>
		<DataField name="_c413" optype="continuous" dataType="integer"/>
		<DataField name="_c414" optype="continuous" dataType="integer"/>
		<DataField name="_c415" optype="continuous" dataType="integer"/>
		<DataField name="_c416" optype="continuous" dataType="integer"/>
		<DataField name="_c417" optype="continuous" dataType="integer"/>
		<DataField name="_c418" optype="continuous" dataType="integer"/>
		<DataField name="_c419" optype="continuous" dataType="integer"/>
		<DataField name="_c420" optype="continuous" dataType="integer"/>
		<DataField name="_c421" optype="continuous" dataType="integer"/>
		<DataField name="_c422" optype="continuous" dataType="integer"/>
		<DataField name="_c423" optype="continuous" dataType="integer"/>
		<DataField name="_c424" optype="continuous" dataType="integer"/>
		<DataField name="_c425" optype="continuous" dataType="integer"/>
		<DataField name="_c426" optype="continuous" dataType="integer"/>
		<DataField name="_c427" optype="continuous" dataType="integer"/>
		<DataField name="_c428" optype="continuous" dataType="integer"/>
		<DataField name="_c429" optype="continuous" dataType="integer"/>
		<DataField name="_c430" optype="continuous" dataType="integer"/>
		<DataField name="_c431" optype="continuous" dataType="integer"/>
		<DataField name="_c432" optype="continuous" dataType="integer"/>
		<DataField name="_c433" optype="continuous" dataType="integer"/>
		<DataField name="_c434" optype="continuous" dataType="integer"/>
		<DataField name="_c435" optype="continuous" dataType="integer"/>
		<DataField name="_c436" optype="continuous" dataType="integer"/>
		<DataField name="_c437" optype="continuous" dataType="integer"/>
		<DataField name="_c438" optype="continuous" dataType="integer"/>
		<DataField name="_c439" optype="continuous" dataType="integer"/>
		<DataField name="_c440" optype="continuous" dataType="integer"/>
		<DataField name="_c441" optype="continuous" dataType="integer"/>
		<DataField name="_c442" optype="continuous" dataType="integer"/>
		<DataField name="_c443" optype="continuous" dataType="integer"/>
		<DataField name="_c444" optype="continuous" dataType="integer"/>
		<DataField name="_c445" optype="continuous" dataType="integer"/>
		<DataField name="_c446" optype="continuous" dataType="integer"/>
		<DataField name="_c447" optype="continuous" dataType="integer"/>
		<DataField name="_c448" optype="continuous" dataType="integer"/>
		<DataField name="_c449" optype="continuous" dataType="integer"/>
		<DataField name="_c450" optype="continuous" dataType="integer"/>
		<DataField name="_c451" optype="continuous" dataType="integer"/>
		<DataField name="_c452" optype="continuous" dataType="integer"/>
		<DataField name="_c453" optype="continuous" dataType="integer"/>
		<DataField name="_c454" optype="continuous" dataType="integer"/>
		<DataField name="_c455" optype="continuous" dataType="integer"/>
		<DataField name="_c456" optype="continuous" dataType="integer"/>
		<DataField name="_c457" optype="continuous" dataType="integer"/>
		<DataField name="_c458" optype="continuous" dataType="integer"/>
		<DataField name="_c459" optype="continuous" dataType="integer"/>
		<DataField name="_c460" optype="continuous" dataType="integer"/>
		<DataField name="_c461" optype="continuous" dataType="integer"/>
		<DataField name="_c462" optype="continuous" dataType="integer"/>
		<DataField name="_c463" optype="continuous" dataType="integer"/>
		<DataField name="_c464" optype="continuous" dataType="integer"/>
		<DataField name="_c465" optype="continuous" dataType="integer"/>
		<DataField name="_c466" optype="continuous" dataType="integer"/>
		<DataField name="_c467" optype="continuous" dataType="integer"/>
		<DataField name="_c468" optype="continuous" dataType="integer"/>
		<DataField name="_c469" optype="continuous" dataType="integer"/>
		<DataField name="_c470" optype="continuous" dataType="integer"/>
		<DataField name="_c471" optype="continuous" dataType="integer"/>
		<DataField name="_c472" optype="continuous" dataType="integer"/>
		<DataField name="_c473" optype="continuous" dataType="integer"/>
		<DataField name="_c474" optype="continuous" dataType="integer"/>
		<DataField name="_c475" optype="continuous" dataType="integer"/>
		<DataField name="_c477" optype="continuous" dataType="integer"/>
		<DataField name="_c478" optype="continuous" dataType="integer"/>
		<DataField name="_c479" optype="continuous" dataType="integer"/>
		<DataField name="_c480" optype="continuous" dataType="integer"/>
		<DataField name="_c481" optype="continuous" dataType="integer"/>
		<DataField name="_c482" optype="continuous" dataType="integer"/>
		<DataField name="_c483" optype="continuous" dataType="integer"/>
		<DataField name="_c484" optype="continuous" dataType="integer"/>
		<DataField name="_c485" optype="continuous" dataType="integer"/>
		<DataField name="_c486" optype="continuous" dataType="integer"/>
		<DataField name="_c487" optype="continuous" dataType="integer"/>
		<DataField name="_c488" optype="continuous" dataType="integer"/>
		<DataField name="_c489" optype="continuous" dataType="integer"/>
		<DataField name="_c490" optype="continuous" dataType="integer"/>
		<DataField name="_c491" optype="continuous" dataType="integer"/>
		<DataField name="_c492" optype="continuous" dataType="integer"/>
		<DataField name="_c493" optype="continuous" dataType="integer"/>
		<DataField name="_c494" optype="continuous" dataType="integer"/>
		<DataField name="_c495" optype="continuous" dataType="integer"/>
		<DataField name="_c496" optype="continuous" dataType="integer"/>
		<DataField name="_c497" optype="continuous" dataType="integer"/>
		<DataField name="_c498" optype="continuous" dataType="integer"/>
		<DataField name="_c499" optype="continuous" dataType="integer"/>
		<DataField name="_c500" optype="continuous" dataType="integer"/>
		<DataField name="_c501" optype="continuous" dataType="integer"/>
		<DataField name="_c502" optype="continuous" dataType="integer"/>
		<DataField name="_c503" optype="continuous" dataType="integer"/>
		<DataField name="_c504" optype="continuous" dataType="integer"/>
		<DataField name="_c505" optype="continuous" dataType="integer"/>
		<DataField name="_c506" optype="continuous" dataType="integer"/>
		<DataField name="_c507" optype="continuous" dataType="integer"/>
		<DataField name="_c508" optype="continuous" dataType="integer"/>
		<DataField name="_c509" optype="continuous" dataType="integer"/>
		<DataField name="_c510" optype="continuous" dataType="integer"/>
		<DataField name="_c511" optype="continuous" dataType="integer"/>
		<DataField name="_c512" optype="continuous" dataType="integer"/>
		<DataField name="_c513" optype="continuous" dataType="integer"/>
		<DataField name="_c514" optype="continuous" dataType="integer"/>
		<DataField name="_c515" optype="continuous" dataType="integer"/>
		<DataField name="_c516" optype="continuous" dataType="integer"/>
		<DataField name="_c517" optype="continuous" dataType="integer"/>
		<DataField name="_c518" optype="continuous" dataType="integer"/>
		<DataField name="_c519" optype="continuous" dataType="integer"/>
		<DataField name="_c520" optype="continuous" dataType="integer"/>
		<DataField name="_c521" optype="continuous" dataType="integer"/>
		<DataField name="_c522" optype="continuous" dataType="integer"/>
		<DataField name="_c523" optype="continuous" dataType="integer"/>
		<DataField name="_c524" optype="continuous" dataType="integer"/>
		<DataField name="_c525" optype="continuous" dataType="integer"/>
		<DataField name="_c526" optype="continuous" dataType="integer"/>
		<DataField name="_c527" optype="continuous" dataType="integer"/>
		<DataField name="_c528" optype="continuous" dataType="integer"/>
		<DataField name="_c529" optype="continuous" dataType="integer"/>
		<DataField name="_c530" optype="continuous" dataType="integer"/>
		<DataField name="_c531" optype="continuous" dataType="integer"/>
		<DataField name="_c532" optype="continuous" dataType="integer"/>
		<DataField name="_c533" optype="continuous" dataType="integer"/>
		<DataField name="_c534" optype="continuous" dataType="integer"/>
		<DataField name="_c535" optype="continuous" dataType="integer"/>
		<DataField name="_c536" optype="continuous" dataType="integer"/>
		<DataField name="_c537" optype="continuous" dataType="integer"/>
		<DataField name="_c538" optype="continuous" dataType="integer"/>
		<DataField name="_c539" optype="continuous" dataType="integer"/>
		<DataField name="_c540" optype="continuous" dataType="integer"/>
		<DataField name="_c541" optype="continuous" dataType="integer"/>
		<DataField name="_c542" optype="continuous" dataType="integer"/>
		<DataField name="_c543" optype="continuous" dataType="integer"/>
		<DataField name="_c544" optype="continuous" dataType="integer"/>
		<DataField name="_c545" optype="continuous" dataType="integer"/>
		<DataField name="_c546" optype="continuous" dataType="integer"/>
		<DataField name="_c547" optype="continuous" dataType="integer"/>
		<DataField name="_c548" optype="continuous" dataType="integer"/>
		<DataField name="_c549" optype="continuous" dataType="integer"/>
		<DataField name="_c550" optype="continuous" dataType="integer"/>
		<DataField name="_c551" optype="continuous" dataType="integer"/>
		<DataField name="_c552" optype="continuous" dataType="integer"/>
		<DataField name="_c553" optype="continuous" dataType="integer"/>
		<DataField name="_c554" optype="continuous" dataType="integer"/>
		<DataField name="_c555" optype="continuous" dataType="integer"/>
		<DataField name="_c556" optype="continuous" dataType="integer"/>
		<DataField name="_c557" optype="continuous" dataType="integer"/>
		<DataField name="_c558" optype="continuous" dataType="integer"/>
		<DataField name="_c559" optype="continuous" dataType="integer"/>
		<DataField name="_c561" optype="continuous" dataType="integer"/>
		<DataField name="_c562" optype="continuous" dataType="integer"/>
		<DataField name="_c563" optype="continuous" dataType="integer"/>
		<DataField name="_c564" optype="continuous" dataType="integer"/>
		<DataField name="_c565" optype="continuous" dataType="integer"/>
		<DataField name="_c566" optype="continuous" dataType="integer"/>
		<DataField name="_c567" optype="continuous" dataType="integer"/>
		<DataField name="_c568" optype="continuous" dataType="integer"/>
		<DataField name="_c569" optype="continuous" dataType="integer"/>
		<DataField name="_c570" optype="continuous" dataType="integer"/>
		<DataField name="_c571" optype="continuous" dataType="integer"/>
		<DataField name="_c572" optype="continuous" dataType="integer"/>
		<DataField name="_c573" optype="continuous" dataType="integer"/>
		<DataField name="_c574" optype="continuous" dataType="integer"/>
		<DataField name="_c575" optype="continuous" dataType="integer"/>
		<DataField name="_c576" optype="continuous" dataType="integer"/>
		<DataField name="_c577" optype="continuous" dataType="integer"/>
		<DataField name="_c578" optype="continuous" dataType="integer"/>
		<DataField name="_c579" optype="continuous" dataType="integer"/>
		<DataField name="_c580" optype="continuous" dataType="integer"/>
		<DataField name="_c581" optype="continuous" dataType="integer"/>
		<DataField name="_c582" optype="continuous" dataType="integer"/>
		<DataField name="_c583" optype="continuous" dataType="integer"/>
		<DataField name="_c584" optype="continuous" dataType="integer"/>
		<DataField name="_c585" optype="continuous" dataType="integer"/>
		<DataField name="_c586" optype="continuous" dataType="integer"/>
		<DataField name="_c587" optype="continuous" dataType="integer"/>
		<DataField name="_c588" optype="continuous" dataType="integer"/>
		<DataField name="_c589" optype="continuous" dataType="integer"/>
		<DataField name="_c590" optype="continuous" dataType="integer"/>
		<DataField name="_c591" optype="continuous" dataType="integer"/>
		<DataField name="_c592" optype="continuous" dataType="integer"/>
		<DataField name="_c593" optype="continuous" dataType="integer"/>
		<DataField name="_c594" optype="continuous" dataType="integer"/>
		<DataField name="_c595" optype="continuous" dataType="integer"/>
		<DataField name="_c596" optype="continuous" dataType="integer"/>
		<DataField name="_c597" optype="continuous" dataType="integer"/>
		<DataField name="_c598" optype="continuous" dataType="integer"/>
		<DataField name="_c599" optype="continuous" dataType="integer"/>
		<DataField name="_c600" optype="continuous" dataType="integer"/>
		<DataField name="_c601" optype="continuous" dataType="integer"/>
		<DataField name="_c602" optype="continuous" dataType="integer"/>
		<DataField name="_c603" optype="continuous" dataType="integer"/>
		<DataField name="_c604" optype="continuous" dataType="integer"/>
		<DataField name="_c605" optype="continuous" dataType="integer"/>
		<DataField name="_c606" optype="continuous" dataType="integer"/>
		<DataField name="_c607" optype="continuous" dataType="integer"/>
		<DataField name="_c608" optype="continuous" dataType="integer"/>
		<DataField name="_c609" optype="continuous" dataType="integer"/>
		<DataField name="_c610" optype="continuous" dataType="integer"/>
		<DataField name="_c611" optype="continuous" dataType="integer"/>
		<DataField name="_c612" optype="continuous" dataType="integer"/>
		<DataField name="_c613" optype="continuous" dataType="integer"/>
		<DataField name="_c614" optype="continuous" dataType="integer"/>
		<DataField name="_c615" optype="continuous" dataType="integer"/>
		<DataField name="_c616" optype="continuous" dataType="integer"/>
		<DataField name="_c617" optype="continuous" dataType="integer"/>
		<DataField name="_c618" optype="continuous" dataType="integer"/>
		<DataField name="_c619" optype="continuous" dataType="integer"/>
		<DataField name="_c620" optype="continuous" dataType="integer"/>
		<DataField name="_c621" optype="continuous" dataType="integer"/>
		<DataField name="_c622" optype="continuous" dataType="integer"/>
		<DataField name="_c623" optype="continuous" dataType="integer"/>
		<DataField name="_c624" optype="continuous" dataType="integer"/>
		<DataField name="_c625" optype="continuous" dataType="integer"/>
		<DataField name="_c626" optype="continuous" dataType="integer"/>
		<DataField name="_c627" optype="continuous" dataType="integer"/>
		<DataField name="_c628" optype="continuous" dataType="integer"/>
		<DataField name="_c629" optype="continuous" dataType="integer"/>
		<DataField name="_c630" optype="continuous" dataType="integer"/>
		<DataField name="_c631" optype="continuous" dataType="integer"/>
		<DataField name="_c632" optype="continuous" dataType="integer"/>
		<DataField name="_c633" optype="continuous" dataType="integer"/>
		<DataField name="_c634" optype="continuous" dataType="integer"/>
		<DataField name="_c635" optype="continuous" dataType="integer"/>
		<DataField name="_c636" optype="continuous" dataType="integer"/>
		<DataField name="_c637" optype="continuous" dataType="integer"/>
		<DataField name="_c638" optype="continuous" dataType="integer"/>
		<DataField name="_c639" optype="continuous" dataType="integer"/>
		<DataField name="_c640" optype="continuous" dataType="integer"/>
		<DataField name="_c641" optype="continuous" dataType="integer"/>
		<DataField name="_c642" optype="continuous" dataType="integer"/>
		<DataField name="_c643" optype="continuous" dataType="integer"/>
		<DataField name="_c646" optype="continuous" dataType="integer"/>
		<DataField name="_c647" optype="continuous" dataType="integer"/>
		<DataField name="_c648" optype="continuous" dataType="integer"/>
		<DataField name="_c649" optype="continuous" dataType="integer"/>
		<DataField name="_c650" optype="continuous" dataType="integer"/>
		<DataField name="_c651" optype="continuous" dataType="integer"/>
		<DataField name="_c652" optype="continuous" dataType="integer"/>
		<DataField name="_c653" optype="continuous" dataType="integer"/>
		<DataField name="_c654" optype="continuous" dataType="integer"/>
		<DataField name="_c655" optype="continuous" dataType="integer"/>
		<DataField name="_c656" optype="continuous" dataType="integer"/>
		<DataField name="_c657" optype="continuous" dataType="integer"/>
		<DataField name="_c658" optype="continuous" dataType="integer"/>
		<DataField name="_c659" optype="continuous" dataType="integer"/>
		<DataField name="_c660" optype="continuous" dataType="integer"/>
		<DataField name="_c661" optype="continuous" dataType="integer"/>
		<DataField name="_c662" optype="continuous" dataType="integer"/>
		<DataField name="_c663" optype="continuous" dataType="integer"/>
		<DataField name="_c664" optype="continuous" dataType="integer"/>
		<DataField name="_c665" optype="continuous" dataType="integer"/>
		<DataField name="_c666" optype="continuous" dataType="integer"/>
		<DataField name="_c667" optype="continuous" dataType="integer"/>
		<DataField name="_c668" optype="continuous" dataType="integer"/>
		<DataField name="_c669" optype="continuous" dataType="integer"/>
		<DataField name="_c670" optype="continuous" dataType="integer"/>
		<DataField name="_c674" optype="continuous" dataType="integer"/>
		<DataField name="_c675" optype="continuous" dataType="integer"/>
		<DataField name="_c676" optype="continuous" dataType="integer"/>
		<DataField name="_c677" optype="continuous" dataType="integer"/>
		<DataField name="_c678" optype="continuous" dataType="integer"/>
		<DataField name="_c679" optype="continuous" dataType="integer"/>
		<DataField name="_c680" optype="continuous" dataType="integer"/>
		<DataField name="_c681" optype="continuous" dataType="integer"/>
		<DataField name="_c682" optype="continuous" dataType="integer"/>
		<DataField name="_c683" optype="continuous" dataType="integer"/>
		<DataField name="_c684" optype="continuous" dataType="integer"/>
		<DataField name="_c685" optype="continuous" dataType="integer"/>
		<DataField name="_c686" optype="continuous" dataType="integer"/>
		<DataField name="_c687" optype="continuous" dataType="integer"/>
		<DataField name="_c688" optype="continuous" dataType="integer"/>
		<DataField name="_c689" optype="continuous" dataType="integer"/>
		<DataField name="_c690" optype="continuous" dataType="integer"/>
		<DataField name="_c691" optype="continuous" dataType="integer"/>
		<DataField name="_c692" optype="continuous" dataType="integer"/>
		<DataField name="_c693" optype="continuous" dataType="integer"/>
		<DataField name="_c694" optype="continuous" dataType="integer"/>
		<DataField name="_c695" optype="continuous" dataType="integer"/>
		<DataField name="_c696" optype="continuous" dataType="integer"/>
		<DataField name="_c697" optype="continuous" dataType="integer"/>
		<DataField name="_c698" optype="continuous" dataType="integer"/>
		<DataField name="_c702" optype="continuous" dataType="integer"/>
		<DataField name="_c703" optype="continuous" dataType="integer"/>
		<DataField name="_c704" optype="continuous" dataType="integer"/>
		<DataField name="_c705" optype="continuous" dataType="integer"/>
		<DataField name="_c706" optype="continuous" dataType="integer"/>
		<DataField name="_c707" optype="continuous" dataType="integer"/>
		<DataField name="_c708" optype="continuous" dataType="integer"/>
		<DataField name="_c709" optype="continuous" dataType="integer"/>
		<DataField name="_c710" optype="continuous" dataType="integer"/>
		<DataField name="_c711" optype="continuous" dataType="integer"/>
		<DataField name="_c712" optype="continuous" dataType="integer"/>
		<DataField name="_c713" optype="continuous" dataType="integer"/>
		<DataField name="_c714" optype="continuous" dataType="integer"/>
		<DataField name="_c715" optype="continuous" dataType="integer"/>
		<DataField name="_c716" optype="continuous" dataType="integer"/>
		<DataField name="_c717" optype="continuous" dataType="integer"/>
		<DataField name="_c718" optype="continuous" dataType="integer"/>
		<DataField name="_c719" optype="continuous" dataType="integer"/>
		<DataField name="_c720" optype="continuous" dataType="integer"/>
		<DataField name="_c721" optype="continuous" dataType="integer"/>
		<DataField name="_c722" optype="continuous" dataType="integer"/>
		<DataField name="_c723" optype="continuous" dataType="integer"/>
		<DataField name="_c724" optype="continuous" dataType="integer"/>
		<DataField name="_c725" optype="continuous" dataType="integer"/>
		<DataField name="_c726" optype="continuous" dataType="integer"/>
		<DataField name="_c731" optype="continuous" dataType="integer"/>
		<DataField name="_c732" optype="continuous" dataType="integer"/>
		<DataField name="_c733" optype="continuous" dataType="integer"/>
		<DataField name="_c734" optype="continuous" dataType="integer"/>
		<DataField name="_c735" optype="continuous" dataType="integer"/>
		<DataField name="_c736" optype="continuous" dataType="integer"/>
		<DataField name="_c737" optype="continuous" dataType="integer"/>
		<DataField name="_c738" optype="continuous" dataType="integer"/>
		<DataField name="_c739" optype="continuous" dataType="integer"/>
		<DataField name="_c740" optype="continuous" dataType="integer"/>
		<DataField name="_c741" optype="continuous" dataType="integer"/>
		<DataField name="_c742" optype="continuous" dataType="integer"/>
		<DataField name="_c743" optype="continuous" dataType="integer"/>
		<DataField name="_c744" optype="continuous" dataType="integer"/>
		<DataField name="_c745" optype="continuous" dataType="integer"/>
		<DataField name="_c746" optype="continuous" dataType="integer"/>
		<DataField name="_c747" optype="continuous" dataType="integer"/>
		<DataField name="_c748" optype="continuous" dataType="integer"/>
		<DataField name="_c749" optype="continuous" dataType="integer"/>
		<DataField name="_c750" optype="continuous" dataType="integer"/>
		<DataField name="_c751" optype="continuous" dataType="integer"/>
		<DataField name="_c752" optype="continuous" dataType="integer"/>
		<DataField name="_c753" optype="continuous" dataType="integer"/>
		<DataField name="_c760" optype="continuous" dataType="integer"/>
		<DataField name="_c761" optype="continuous" dataType="integer"/>
		<DataField name="_c762" optype="continuous" dataType="integer"/>
		<DataField name="_c763" optype="continuous" dataType="integer"/>
		<DataField name="_c764" optype="continuous" dataType="integer"/>
		<DataField name="_c765" optype="continuous" dataType="integer"/>
		<DataField name="_c766" optype="continuous" dataType="integer"/>
		<DataField name="_c767" optype="continuous" dataType="integer"/>
		<DataField name="_c768" optype="continuous" dataType="integer"/>
		<DataField name="_c769" optype="continuous" dataType="integer"/>
		<DataField name="_c770" optype="continuous" dataType="integer"/>
		<DataField name="_c771" optype="continuous" dataType="integer"/>
		<DataField name="_c772" optype="continuous" dataType="integer"/>
		<DataField name="_c773" optype="continuous" dataType="integer"/>
		<DataField name="_c774" optype="continuous" dataType="integer"/>
		<DataField name="_c775" optype="continuous" dataType="integer"/>
		<DataField name="_c776" optype="continuous" dataType="integer"/>
		<DataField name="_c777" optype="continuous" dataType="integer"/>
		<DataField name="_c778" optype="continuous" dataType="integer"/>
		<DataField name="_c779" optype="continuous" dataType="integer"/>
		<DataField name="label" optype="categorical" dataType="integer">
			<Value value="0"/>
			<Value value="1"/>
			<Value value="2"/>
			<Value value="3"/>
			<Value value="4"/>
			<Value value="5"/>
			<Value value="6"/>
			<Value value="7"/>
			<Value value="8"/>
			<Value value="9"/>
		</DataField>
	</DataDictionary>
	<RegressionModel functionName="classification" normalizationMethod="softmax">
		<MiningSchema>
			<MiningField name="label" usageType="target"/>
			<MiningField name="_c12"/>
			<MiningField name="_c13"/>
			<MiningField name="_c14"/>
			<MiningField name="_c15"/>
			<MiningField name="_c32"/>
			<MiningField name="_c33"/>
			<MiningField name="_c34"/>
			<MiningField name="_c35"/>
			<MiningField name="_c36"/>
			<MiningField name="_c37"/>
			<MiningField name="_c38"/>
			<MiningField name="_c39"/>
			<MiningField name="_c40"/>
			<MiningField name="_c41"/>
			<MiningField name="_c42"/>
			<MiningField name="_c43"/>
			<MiningField name="_c44"/>
			<MiningField name="_c45"/>
			<MiningField name="_c46"/>
			<MiningField name="_c47"/>
			<MiningField name="_c48"/>
			<MiningField name="_c49"/>
			<MiningField name="_c50"/>
			<MiningField name="_c51"/>
			<MiningField name="_c58"/>
			<MiningField name="_c59"/>
			<MiningField name="_c60"/>
			<MiningField name="_c61"/>
			<MiningField name="_c62"/>
			<MiningField name="_c63"/>
			<MiningField name="_c64"/>
			<MiningField name="_c65"/>
			<MiningField name="_c66"/>
			<MiningField name="_c67"/>
			<MiningField name="_c68"/>
			<MiningField name="_c69"/>
			<MiningField name="_c70"/>
			<MiningField name="_c71"/>
			<MiningField name="_c72"/>
			<MiningField name="_c73"/>
			<MiningField name="_c74"/>
			<MiningField name="_c75"/>
			<MiningField name="_c76"/>
			<MiningField name="_c77"/>
			<MiningField name="_c78"/>
			<MiningField name="_c79"/>
			<MiningField name="_c80"/>
			<MiningField name="_c81"/>
			<MiningField name="_c86"/>
			<MiningField name="_c87"/>
			<MiningField name="_c88"/>
			<MiningField name="_c89"/>
			<MiningField name="_c90"/>
			<MiningField name="_c91"/>
			<MiningField name="_c92"/>
			<MiningField name="_c93"/>
			<MiningField name="_c94"/>
			<MiningField name="_c95"/>
			<MiningField name="_c96"/>
			<MiningField name="_c97"/>
			<MiningField name="_c98"/>
			<MiningField name="_c99"/>
			<MiningField name="_c100"/>
			<MiningField name="_c101"/>
			<MiningField name="_c102"/>
			<MiningField name="_c103"/>
			<MiningField name="_c104"/>
			<MiningField name="_c105"/>
			<MiningField name="_c106"/>
			<MiningField name="_c107"/>
			<MiningField name="_c108"/>
			<MiningField name="_c109"/>
			<MiningField name="_c110"/>
			<MiningField name="_c113"/>
			<MiningField name="_c114"/>
			<MiningField name="_c115"/>
			<MiningField name="_c116"/>
			<MiningField name="_c117"/>
			<MiningField name="_c118"/>
			<MiningField name="_c119"/>
			<MiningField name="_c120"/>
			<MiningField name="_c121"/>
			<MiningField name="_c122"/>
			<MiningField name="_c123"/>
			<MiningField name="_c124"/>
			<MiningField name="_c125"/>
			<MiningField name="_c126"/>
			<MiningField name="_c127"/>
			<MiningField name="_c128"/>
			<MiningField name="_c129"/>
			<MiningField name="_c130"/>
			<MiningField name="_c131"/>
			<MiningField name="_c132"/>
			<MiningField name="_c133"/>
			<MiningField name="_c134"/>
			<MiningField name="_c135"/>
			<MiningField name="_c136"/>
			<MiningField name="_c137"/>
			<MiningField name="_c138"/>
			<MiningField name="_c139"/>
			<MiningField name="_c142"/>
			<MiningField name="_c143"/>
			<MiningField name="_c144"/>
			<MiningField name="_c145"/>
			<MiningField name="_c146"/>
			<MiningField name="_c147"/>
			<MiningField name="_c148"/>
			<MiningField name="_c149"/>
			<MiningField name="_c150"/>
			<MiningField name="_c151"/>
			<MiningField name="_c152"/>
			<MiningField name="_c153"/>
			<MiningField name="_c154"/>
			<MiningField name="_c155"/>
			<MiningField name="_c156"/>
			<MiningField name="_c157"/>
			<MiningField name="_c158"/>
			<MiningField name="_c159"/>
			<MiningField name="_c160"/>
			<MiningField name="_c161"/>
			<MiningField name="_c162"/>
			<MiningField name="_c163"/>
			<MiningField name="_c164"/>
			<MiningField name="_c165"/>
			<MiningField name="_c166"/>
			<MiningField name="_c167"/>
			<MiningField name="_c169"/>
			<MiningField name="_c170"/>
			<MiningField name="_c171"/>
			<MiningField name="_c172"/>
			<MiningField name="_c173"/>
			<MiningField name="_c174"/>
			<MiningField name="_c175"/>
			<MiningField name="_c176"/>
			<MiningField name="_c177"/>
			<MiningField name="_c178"/>
			<MiningField name="_c179"/>
			<MiningField name="_c180"/>
			<MiningField name="_c181"/>
			<MiningField name="_c182"/>
			<MiningField name="_c183"/>
			<MiningField name="_c184"/>
			<MiningField name="_c185"/>
			<MiningField name="_c186"/>
			<MiningField name="_c187"/>
			<MiningField name="_c188"/>
			<MiningField name="_c189"/>
			<MiningField name="_c190"/>
			<MiningField name="_c191"/>
			<MiningField name="_c192"/>
			<MiningField name="_c193"/>
			<MiningField name="_c194"/>
			<MiningField name="_c195"/>
			<MiningField name="_c196"/>
			<MiningField name="_c197"/>
			<MiningField name="_c198"/>
			<MiningField name="_c199"/>
			<MiningField name="_c200"/>
			<MiningField name="_c201"/>
			<MiningField name="_c202"/>
			<MiningField name="_c203"/>
			<MiningField name="_c204"/>
			<MiningField name="_c205"/>
			<MiningField name="_c206"/>
			<MiningField name="_c207"/>
			<MiningField name="_c208"/>
			<MiningField name="_c209"/>
			<MiningField name="_c210"/>
			<MiningField name="_c211"/>
			<MiningField name="_c212"/>
			<MiningField name="_c213"/>
			<MiningField name="_c214"/>
			<MiningField name="_c215"/>
			<MiningField name="_c216"/>
			<MiningField name="_c217"/>
			<MiningField name="_c218"/>
			<MiningField name="_c219"/>
			<MiningField name="_c220"/>
			<MiningField name="_c221"/>
			<MiningField name="_c222"/>
			<MiningField name="_c223"/>
			<MiningField name="_c224"/>
			<MiningField name="_c225"/>
			<MiningField name="_c226"/>
			<MiningField name="_c227"/>
			<MiningField name="_c228"/>
			<MiningField name="_c229"/>
			<MiningField name="_c230"/>
			<MiningField name="_c231"/>
			<MiningField name="_c232"/>
			<MiningField name="_c233"/>
			<MiningField name="_c234"/>
			<MiningField name="_c235"/>
			<MiningField name="_c236"/>
			<MiningField name="_c237"/>
			<MiningField name="_c238"/>
			<MiningField name="_c239"/>
			<MiningField name="_c240"/>
			<MiningField name="_c241"/>
			<MiningField name="_c242"/>
			<MiningField name="_c243"/>
			<MiningField name="_c244"/>
			<MiningField name="_c245"/>
			<MiningField name="_c246"/>
			<MiningField name="_c247"/>
			<MiningField name="_c248"/>
			<MiningField name="_c249"/>
			<MiningField name="_c250"/>
			<MiningField name="_c251"/>
			<MiningField name="_c252"/>
			<MiningField name="_c253"/>
			<MiningField name="_c254"/>
			<MiningField name="_c255"/>
			<MiningField name="_c256"/>
			<MiningField name="_c257"/>
			<MiningField name="_c258"/>
			<MiningField name="_c259"/>
			<MiningField name="_c260"/>
			<MiningField name="_c261"/>
			<MiningField name="_c262"/>
			<MiningField name="_c263"/>
			<MiningField name="_c264"/>
			<MiningField name="_c265"/>
			<MiningField name="_c266"/>
			<MiningField name="_c267"/>
			<MiningField name="_c268"/>
			<MiningField name="_c269"/>
			<MiningField name="_c270"/>
			<MiningField name="_c271"/>
			<MiningField name="_c272"/>
			<MiningField name="_c273"/>
			<MiningField name="_c274"/>
			<MiningField name="_c275"/>
			<MiningField name="_c276"/>
			<MiningField name="_c277"/>
			<MiningField name="_c278"/>
			<MiningField name="_c279"/>
			<MiningField name="_c280"/>
			<MiningField name="_c281"/>
			<MiningField name="_c282"/>
			<MiningField name="_c283"/>
			<MiningField name="_c284"/>
			<MiningField name="_c285"/>
			<MiningField name="_c286"/>
			<MiningField name="_c287"/>
			<MiningField name="_c288"/>
			<MiningField name="_c289"/>
			<MiningField name="_c290"/>
			<MiningField name="_c291"/>
			<MiningField name="_c292"/>
			<MiningField name="_c293"/>
			<MiningField name="_c294"/>
			<MiningField name="_c295"/>
			<MiningField name="_c296"/>
			<MiningField name="_c297"/>
			<MiningField name="_c298"/>
			<MiningField name="_c299"/>
			<MiningField name="_c300"/>
			<MiningField name="_c301"/>
			<MiningField name="_c302"/>
			<MiningField name="_c303"/>
			<MiningField name="_c304"/>
			<MiningField name="_c305"/>
			<MiningField name="_c306"/>
			<MiningField name="_c307"/>
			<MiningField name="_c308"/>
			<MiningField name="_c309"/>
			<MiningField name="_c310"/>
			<MiningField name="_c311"/>
			<MiningField name="_c312"/>
			<MiningField name="_c313"/>
			<MiningField name="_c314"/>
			<MiningField name="_c315"/>
			<MiningField name="_c316"/>
			<MiningField name="_c317"/>
			<MiningField name="_c318"/>
			<MiningField name="_c319"/>
			<MiningField name="_c320"/>
			<MiningField name="_c321"/>
			<MiningField name="_c322"/>
			<MiningField name="_c323"/>
			<MiningField name="_c324"/>
			<MiningField name="_c325"/>
			<MiningField name="_c326"/>
			<MiningField name="_c327"/>
			<MiningField name="_c328"/>
			<MiningField name="_c329"/>
			<MiningField name="_c330"/>
			<MiningField name="_c331"/>
			<MiningField name="_c332"/>
			<MiningField name="_c333"/>
			<MiningField name="_c334"/>
			<MiningField name="_c335"/>
			<MiningField name="_c336"/>
			<MiningField name="_c337"/>
			<MiningField name="_c338"/>
			<MiningField name="_c339"/>
			<MiningField name="_c340"/>
			<MiningField name="_c341"/>
			<MiningField name="_c342"/>
			<MiningField name="_c343"/>
			<MiningField name="_c344"/>
			<MiningField name="_c345"/>
			<MiningField name="_c346"/>
			<MiningField name="_c347"/>
			<MiningField name="_c348"/>
			<MiningField name="_c349"/>
			<MiningField name="_c350"/>
			<MiningField name="_c351"/>
			<MiningField name="_c352"/>
			<MiningField name="_c353"/>
			<MiningField name="_c354"/>
			<MiningField name="_c355"/>
			<MiningField name="_c356"/>
			<MiningField name="_c357"/>
			<MiningField name="_c358"/>
			<MiningField name="_c359"/>
			<MiningField name="_c360"/>
			<MiningField name="_c361"/>
			<MiningField name="_c362"/>
			<MiningField name="_c363"/>
			<MiningField name="_c364"/>
			<MiningField name="_c365"/>
			<MiningField name="_c366"/>
			<MiningField name="_c367"/>
			<MiningField name="_c368"/>
			<MiningField name="_c369"/>
			<MiningField name="_c370"/>
			<MiningField name="_c371"/>
			<MiningField name="_c372"/>
			<MiningField name="_c373"/>
			<MiningField name="_c374"/>
			<MiningField name="_c375"/>
			<MiningField name="_c376"/>
			<MiningField name="_c377"/>
			<MiningField name="_c378"/>
			<MiningField name="_c379"/>
			<MiningField name="_c380"/>
			<MiningField name="_c381"/>
			<MiningField name="_c382"/>
			<MiningField name="_c383"/>
			<MiningField name="_c384"/>
			<MiningField name="_c385"/>
			<MiningField name="_c386"/>
			<MiningField name="_c387"/>
			<MiningField name="_c388"/>
			<MiningField name="_c389"/>
			<MiningField name="_c390"/>
			<MiningField name="_c391"/>
			<MiningField name="_c392"/>
			<MiningField name="_c393"/>
			<MiningField name="_c394"/>
			<MiningField name="_c395"/>
			<MiningField name="_c396"/>
			<MiningField name="_c397"/>
			<MiningField name="_c398"/>
			<MiningField name="_c399"/>
			<MiningField name="_c400"/>
			<MiningField name="_c401"/>
			<MiningField name="_c402"/>
			<MiningField name="_c403"/>
			<MiningField name="_c404"/>
			<MiningField name="_c405"/>
			<MiningField name="_c406"/>
			<MiningField name="_c407"/>
			<MiningField name="_c408"/>
			<MiningField name="_c409"/>
			<MiningField name="_c410"/>
			<MiningField name="_c411"/>
			<MiningField name="_c412"/>
			<MiningField name="_c413"/>
			<MiningField name="_c414"/>
			<MiningField name="_c415"/>
			<MiningField name="_c416"/>
			<MiningField name="_c417"/>
			<MiningField name="_c418"/>
			<MiningField name="_c419"/>
			<MiningField name="_c420"/>
			<MiningField name="_c421"/>
			<MiningField name="_c422"/>
			<MiningField name="_c423"/>
			<MiningField name="_c424"/>
			<MiningField name="_c425"/>
			<MiningField name="_c426"/>
			<MiningField name="_c427"/>
			<MiningField name="_c428"/>
			<MiningField name="_c429"/>
			<MiningField name="_c430"/>
			<MiningField name="_c431"/>
			<MiningField name="_c432"/>
			<MiningField name="_c433"/>
			<MiningField name="_c434"/>
			<MiningField name="_c435"/>
			<MiningField name="_c436"/>
			<MiningField name="_c437"/>
			<MiningField name="_c438"/>
			<MiningField name="_c439"/>
			<MiningField name="_c440"/>
			<MiningField name="_c441"/>
			<MiningField name="_c442"/>
			<MiningField name="_c443"/>
			<MiningField name="_c444"/>
			<MiningField name="_c445"/>
			<MiningField name="_c446"/>
			<MiningField name="_c447"/>
			<MiningField name="_c448"/>
			<MiningField name="_c449"/>
			<MiningField name="_c450"/>
			<MiningField name="_c451"/>
			<MiningField name="_c452"/>
			<MiningField name="_c453"/>
			<MiningField name="_c454"/>
			<MiningField name="_c455"/>
			<MiningField name="_c456"/>
			<MiningField name="_c457"/>
			<MiningField name="_c458"/>
			<MiningField name="_c459"/>
			<MiningField name="_c460"/>
			<MiningField name="_c461"/>
			<MiningField name="_c462"/>
			<MiningField name="_c463"/>
			<MiningField name="_c464"/>
			<MiningField name="_c465"/>
			<MiningField name="_c466"/>
			<MiningField name="_c467"/>
			<MiningField name="_c468"/>
			<MiningField name="_c469"/>
			<MiningField name="_c470"/>
			<MiningField name="_c471"/>
			<MiningField name="_c472"/>
			<MiningField name="_c473"/>
			<MiningField name="_c474"/>
			<MiningField name="_c475"/>
			<MiningField name="_c477"/>
			<MiningField name="_c478"/>
			<MiningField name="_c479"/>
			<MiningField name="_c480"/>
			<MiningField name="_c481"/>
			<MiningField name="_c482"/>
			<MiningField name="_c483"/>
			<MiningField name="_c484"/>
			<MiningField name="_c485"/>
			<MiningField name="_c486"/>
			<MiningField name="_c487"/>
			<MiningField name="_c488"/>
			<MiningField name="_c489"/>
			<MiningField name="_c490"/>
			<MiningField name="_c491"/>
			<MiningField name="_c492"/>
			<MiningField name="_c493"/>
			<MiningField name="_c494"/>
			<MiningField name="_c495"/>
			<MiningField name="_c496"/>
			<MiningField name="_c497"/>
			<MiningField name="_c498"/>
			<MiningField name="_c499"/>
			<MiningField name="_c500"/>
			<MiningField name="_c501"/>
			<MiningField name="_c502"/>
			<MiningField name="_c503"/>
			<MiningField name="_c504"/>
			<MiningField name="_c505"/>
			<MiningField name="_c506"/>
			<MiningField name="_c507"/>
			<MiningField name="_c508"/>
			<MiningField name="_c509"/>
			<MiningField name="_c510"/>
			<MiningField name="_c511"/>
			<MiningField name="_c512"/>
			<MiningField name="_c513"/>
			<MiningField name="_c514"/>
			<MiningField name="_c515"/>
			<MiningField name="_c516"/>
			<MiningField name="_c517"/>
			<MiningField name="_c518"/>
			<MiningField name="_c519"/>
			<MiningField name="_c520"/>
			<MiningField name="_c521"/>
			<MiningField name="_c522"/>
			<MiningField name="_c523"/>
			<MiningField name="_c524"/>
			<MiningField name="_c525"/>
			<MiningField name="_c526"/>
			<MiningField name="_c527"/>
			<MiningField name="_c528"/>
			<MiningField name="_c529"/>
			<MiningField name="_c530"/>
			<MiningField name="_c531"/>
			<MiningField name="_c532"/>
			<MiningField name="_c533"/>
			<MiningField name="_c534"/>
			<MiningField name="_c535"/>
			<MiningField name="_c536"/>
			<MiningField name="_c537"/>
			<MiningField name="_c538"/>
			<MiningField name="_c539"/>
			<MiningField name="_c540"/>
			<MiningField name="_c541"/>
			<MiningField name="_c542"/>
			<MiningField name="_c543"/>
			<MiningField name="_c544"/>
			<MiningField name="_c545"/>
			<MiningField name="_c546"/>
			<MiningField name="_c547"/>
			<MiningField name="_c548"/>
			<MiningField name="_c549"/>
			<MiningField name="_c550"/>
			<MiningField name="_c551"/>
			<MiningField name="_c552"/>
			<MiningField name="_c553"/>
			<MiningField name="_c554"/>
			<MiningField name="_c555"/>
			<MiningField name="_c556"/>
			<MiningField name="_c557"/>
			<MiningField name="_c558"/>
			<MiningField name="_c559"/>
			<MiningField name="_c561"/>
			<MiningField name="_c562"/>
			<MiningField name="_c563"/>
			<MiningField name="_c564"/>
			<MiningField name="_c565"/>
			<MiningField name="_c566"/>
			<MiningField name="_c567"/>
			<MiningField name="_c568"/>
			<MiningField name="_c569"/>
			<MiningField name="_c570"/>
			<MiningField name="_c571"/>
			<MiningField name="_c572"/>
			<MiningField name="_c573"/>
			<MiningField name="_c574"/>
			<MiningField name="_c575"/>
			<MiningField name="_c576"/>
			<MiningField name="_c577"/>
			<MiningField name="_c578"/>
			<MiningField name="_c579"/>
			<MiningField name="_c580"/>
			<MiningField name="_c581"/>
			<MiningField name="_c582"/>
			<MiningField name="_c583"/>
			<MiningField name="_c584"/>
			<MiningField name="_c585"/>
			<MiningField name="_c586"/>
			<MiningField name="_c587"/>
			<MiningField name="_c588"/>
			<MiningField name="_c589"/>
			<MiningField name="_c590"/>
			<MiningField name="_c591"/>
			<MiningField name="_c592"/>
			<MiningField name="_c593"/>
			<MiningField name="_c594"/>
			<MiningField name="_c595"/>
			<MiningField name="_c596"/>
			<MiningField name="_c597"/>
			<MiningField name="_c598"/>
			<MiningField name="_c599"/>
			<MiningField name="_c600"/>
			<MiningField name="_c601"/>
			<MiningField name="_c602"/>
			<MiningField name="_c603"/>
			<MiningField name="_c604"/>
			<MiningField name="_c605"/>
			<MiningField name="_c606"/>
			<MiningField name="_c607"/>
			<MiningField name="_c608"/>
			<MiningField name="_c609"/>
			<MiningField name="_c610"/>
			<MiningField name="_c611"/>
			<MiningField name="_c612"/>
			<MiningField name="_c613"/>
			<MiningField name="_c614"/>
			<MiningField name="_c615"/>
			<MiningField name="_c616"/>
			<MiningField name="_c617"/>
			<MiningField name="_c618"/>
			<MiningField name="_c619"/>
			<MiningField name="_c620"/>
			<MiningField name="_c621"/>
			<MiningField name="_c622"/>
			<MiningField name="_c623"/>
			<MiningField name="_c624"/>
			<MiningField name="_c625"/>
			<MiningField name="_c626"/>
			<MiningField name="_c627"/>
			<MiningField name="_c628"/>
			<MiningField name="_c629"/>
			<MiningField name="_c630"/>
			<MiningField name="_c631"/>
			<MiningField name="_c632"/>
			<MiningField name="_c633"/>
			<MiningField name="_c634"/>
			<MiningField name="_c635"/>
			<MiningField name="_c636"/>
			<MiningField name="_c637"/>
			<MiningField name="_c638"/>
			<MiningField name="_c639"/>
			<MiningField name="_c640"/>
			<MiningField name="_c641"/>
			<MiningField name="_c642"/>
			<MiningField name="_c643"/>
			<MiningField name="_c646"/>
			<MiningField name="_c647"/>
			<MiningField name="_c648"/>
			<MiningField name="_c649"/>
			<MiningField name="_c650"/>
			<MiningField name="_c651"/>
			<MiningField name="_c652"/>
			<MiningField name="_c653"/>
			<MiningField name="_c654"/>
			<MiningField name="_c655"/>
			<MiningField name="_c656"/>
			<MiningField name="_c657"/>
			<MiningField name="_c658"/>
			<MiningField name="_c659"/>
			<MiningField name="_c660"/>
			<MiningField name="_c661"/>
			<MiningField name="_c662"/>
			<MiningField name="_c663"/>
			<MiningField name="_c664"/>
			<MiningField name="_c665"/>
			<MiningField name="_c666"/>
			<MiningField name="_c667"/>
			<MiningField name="_c668"/>
			<MiningField name="_c669"/>
			<MiningField name="_c670"/>
			<MiningField name="_c674"/>
			<MiningField name="_c675"/>
			<MiningField name="_c676"/>
			<MiningField name="_c677"/>
			<MiningField name="_c678"/>
			<MiningField name="_c679"/>
			<MiningField name="_c680"/>
			<MiningField name="_c681"/>
			<MiningField name="_c682"/>
			<MiningField name="_c683"/>
			<MiningField name="_c684"/>
			<MiningField name="_c685"/>
			<MiningField name="_c686"/>
			<MiningField name="_c687"/>
			<MiningField name="_c688"/>
			<MiningField name="_c689"/>
			<MiningField name="_c690"/>
			<MiningField name="_c691"/>
			<MiningField name="_c692"/>
			<MiningField name="_c693"/>
			<MiningField name="_c694"/>
			<MiningField name="_c695"/>
			<MiningField name="_c696"/>
			<MiningField name="_c697"/>
			<MiningField name="_c698"/>
			<MiningField name="_c702"/>
			<MiningField name="_c703"/>
			<MiningField name="_c704"/>
			<MiningField name="_c705"/>
			<MiningField name="_c706"/>
			<MiningField name="_c707"/>
			<MiningField name="_c708"/>
			<MiningField name="_c709"/>
			<MiningField name="_c710"/>
			<MiningField name="_c711"/>
			<MiningField name="_c712"/>
			<MiningField name="_c713"/>
			<MiningField name="_c714"/>
			<MiningField name="_c715"/>
			<MiningField name="_c716"/>
			<MiningField name="_c717"/>
			<MiningField name="_c718"/>
			<MiningField name="_c719"/>
			<MiningField name="_c720"/>
			<MiningField name="_c721"/>
			<MiningField name="_c722"/>
			<MiningField name="_c723"/>
			<MiningField name="_c724"/>
			<MiningField name="_c725"/>
			<MiningField name="_c726"/>
			<MiningField name="_c731"/>
			<MiningField name="_c732"/>
			<MiningField name="_c733"/>
			<MiningField name="_c734"/>
			<MiningField name="_c735"/>
			<MiningField name="_c736"/>
			<MiningField name="_c737"/>
			<MiningField name="_c738"/>
			<MiningField name="_c739"/>
			<MiningField name="_c740"/>
			<MiningField name="_c741"/>
			<MiningField name="_c742"/>
			<MiningField name="_c743"/>
			<MiningField name="_c744"/>
			<MiningField name="_c745"/>
			<MiningField name="_c746"/>
			<MiningField name="_c747"/>
			<MiningField name="_c748"/>
			<MiningField name="_c749"/>
			<MiningField name="_c750"/>
			<MiningField name="_c751"/>
			<MiningField name="_c752"/>
			<MiningField name="_c753"/>
			<MiningField name="_c760"/>
			<MiningField name="_c761"/>
			<MiningField name="_c762"/>
			<MiningField name="_c763"/>
			<MiningField name="_c764"/>
			<MiningField name="_c765"/>
			<MiningField name="_c766"/>
			<MiningField name="_c767"/>
			<MiningField name="_c768"/>
			<MiningField name="_c769"/>
			<MiningField name="_c770"/>
			<MiningField name="_c771"/>
			<MiningField name="_c772"/>
			<MiningField name="_c773"/>
			<MiningField name="_c774"/>
			<MiningField name="_c775"/>
			<MiningField name="_c776"/>
			<MiningField name="_c777"/>
			<MiningField name="_c778"/>
			<MiningField name="_c779"/>
		</MiningSchema>
		<Output>
			<OutputField name="pmml(prediction)" optype="categorical" dataType="integer" feature="predictedValue"/>
			<OutputField name="prediction" optype="categorical" dataType="double" feature="transformedValue">
				<MapValues outputColumn="output">
					<FieldColumnPair field="pmml(prediction)" column="input"/>
					<InlineTable>
						<row>
							<input xmlns:ns2="http://www.dmg.org/PMML-4_3" xmlns="">0</input>
							<output xmlns:ns2="http://www.dmg.org/PMML-4_3" xmlns="">0</output>
						</row>
						<row>
							<input xmlns:ns2="http://www.dmg.org/PMML-4_3" xmlns="">1</input>
							<output xmlns:ns2="http://www.dmg.org/PMML-4_3" xmlns="">1</output>
						</row>
						<row>
							<input xmlns:ns2="http://www.dmg.org/PMML-4_3" xmlns="">2</input>
							<output xmlns:ns2="http://www.dmg.org/PMML-4_3" xmlns="">2</output>
						</row>
						<row>
							<input xmlns:ns2="http://www.dmg.org/PMML-4_3" xmlns="">3</input>
							<output xmlns:ns2="http://www.dmg.org/PMML-4_3" xmlns="">3</output>
						</row>
						<row>
							<input xmlns:ns2="http://www.dmg.org/PMML-4_3" xmlns="">4</input>
							<output xmlns:ns2="http://www.dmg.org/PMML-4_3" xmlns="">4</output>
						</row>
						<row>
							<input xmlns:ns2="http://www.dmg.org/PMML-4_3" xmlns="">5</input>
							<output xmlns:ns2="http://www.dmg.org/PMML-4_3" xmlns="">5</output>
						</row>
						<row>
							<input xmlns:ns2="http://www.dmg.org/PMML-4_3" xmlns="">6</input>
							<output xmlns:ns2="http://www.dmg.org/PMML-4_3" xmlns="">6</output>
						</row>
						<row>
							<input xmlns:ns2="http://www.dmg.org/PMML-4_3" xmlns="">7</input>
							<output xmlns:ns2="http://www.dmg.org/PMML-4_3" xmlns="">7</output>
						</row>
						<row>
							<input xmlns:ns2="http://www.dmg.org/PMML-4_3" xmlns="">8</input>
							<output xmlns:ns2="http://www.dmg.org/PMML-4_3" xmlns="">8</output>
						</row>
						<row>
							<input xmlns:ns2="http://www.dmg.org/PMML-4_3" xmlns="">9</input>
							<output xmlns:ns2="http://www.dmg.org/PMML-4_3" xmlns="">9</output>
						</row>
					</InlineTable>
				</MapValues>
			</OutputField>
			<OutputField name="probability(0)" optype="continuous" dataType="double" feature="probability" value="0"/>
			<OutputField name="probability(1)" optype="continuous" dataType="double" feature="probability" value="1"/>
			<OutputField name="probability(2)" optype="continuous" dataType="double" feature="probability" value="2"/>
			<OutputField name="probability(3)" optype="continuous" dataType="double" feature="probability" value="3"/>
			<OutputField name="probability(4)" optype="continuous" dataType="double" feature="probability" value="4"/>
			<OutputField name="probability(5)" optype="continuous" dataType="double" feature="probability" value="5"/>
			<OutputField name="probability(6)" optype="continuous" dataType="double" feature="probability" value="6"/>
			<OutputField name="probability(7)" optype="continuous" dataType="double" feature="probability" value="7"/>
			<OutputField name="probability(8)" optype="continuous" dataType="double" feature="probability" value="8"/>
			<OutputField name="probability(9)" optype="continuous" dataType="double" feature="probability" value="9"/>
		</Output>
		<RegressionTable intercept="-0.03729157412983537" targetCategory="0">
			<NumericPredictor name="_c12" coefficient="-7.987010089414207E-4"/>
			<NumericPredictor name="_c13" coefficient="-3.743021764266702E-4"/>
			<NumericPredictor name="_c14" coefficient="-4.2702244170309293E-4"/>
			<NumericPredictor name="_c15" coefficient="-0.01024853860087423"/>
			<NumericPredictor name="_c32" coefficient="-0.00529293824428061"/>
			<NumericPredictor name="_c33" coefficient="-0.002074000462203362"/>
			<NumericPredictor name="_c34" coefficient="-7.617755762462849E-4"/>
			<NumericPredictor name="_c35" coefficient="-5.571205343515267E-4"/>
			<NumericPredictor name="_c36" coefficient="-6.563221621529665E-4"/>
			<NumericPredictor name="_c37" coefficient="-8.183006740988695E-4"/>
			<NumericPredictor name="_c38" coefficient="-6.978527411738087E-4"/>
			<NumericPredictor name="_c39" coefficient="-2.0841796147410516E-4"/>
			<NumericPredictor name="_c40" coefficient="1.7475490905954766E-4"/>
			<NumericPredictor name="_c41" coefficient="-2.2462564291024742E-4"/>
			<NumericPredictor name="_c42" coefficient="-5.799593465055986E-4"/>
			<NumericPredictor name="_c43" coefficient="-2.788295234220439E-4"/>
			<NumericPredictor name="_c44" coefficient="1.1939761500523667E-4"/>
			<NumericPredictor name="_c45" coefficient="-1.323414884565574E-4"/>
			<NumericPredictor name="_c46" coefficient="-5.187217112555357E-4"/>
			<NumericPredictor name="_c47" coefficient="-4.715274133818017E-4"/>
			<NumericPredictor name="_c48" coefficient="-4.785007142022904E-4"/>
			<NumericPredictor name="_c49" coefficient="-6.293046953312274E-4"/>
			<NumericPredictor name="_c50" coefficient="-7.276368799524769E-4"/>
			<NumericPredictor name="_c51" coefficient="-4.8279393629726636E-4"/>
			<NumericPredictor name="_c58" coefficient="-0.0014133958062332648"/>
			<NumericPredictor name="_c59" coefficient="0.0431118379399474"/>
			<NumericPredictor name="_c60" coefficient="-6.277132149236092E-4"/>
			<NumericPredictor name="_c61" coefficient="-0.0030699099753002525"/>
			<NumericPredictor name="_c62" coefficient="-9.204719791894592E-4"/>
			<NumericPredictor name="_c63" coefficient="-5.748456953835432E-4"/>
			<NumericPredictor name="_c64" coefficient="-8.329481175068499E-4"/>
			<NumericPredictor name="_c65" coefficient="-0.0010138812631354259"/>
			<NumericPredictor name="_c66" coefficient="-8.81251874693317E-4"/>
			<NumericPredictor name="_c67" coefficient="-7.831115505345297E-4"/>
			<NumericPredictor name="_c68" coefficient="-7.356894907356747E-4"/>
			<NumericPredictor name="_c69" coefficient="-7.158806727590556E-4"/>
			<NumericPredictor name="_c70" coefficient="-7.49086155909093E-4"/>
			<NumericPredictor name="_c71" coefficient="-7.134145513912068E-4"/>
			<NumericPredictor name="_c72" coefficient="-6.48697387655424E-4"/>
			<NumericPredictor name="_c73" coefficient="-6.299435843546658E-4"/>
			<NumericPredictor name="_c74" coefficient="-6.210041208745755E-4"/>
			<NumericPredictor name="_c75" coefficient="-6.181925222296425E-4"/>
			<NumericPredictor name="_c76" coefficient="-6.417737556312392E-4"/>
			<NumericPredictor name="_c77" coefficient="-6.090409125267869E-4"/>
			<NumericPredictor name="_c78" coefficient="-6.58272632692188E-4"/>
			<NumericPredictor name="_c79" coefficient="-7.738165554677219E-4"/>
			<NumericPredictor name="_c80" coefficient="-6.852392669762194E-4"/>
			<NumericPredictor name="_c81" coefficient="-9.175015293777426E-4"/>
			<NumericPredictor name="_c86" coefficient="-7.968656479118901E-4"/>
			<NumericPredictor name="_c87" coefficient="0.003349684051458784"/>
			<NumericPredictor name="_c88" coefficient="-0.0026826669924749002"/>
			<NumericPredictor name="_c89" coefficient="-7.451420460674669E-4"/>
			<NumericPredictor name="_c90" coefficient="-8.418087952902626E-4"/>
			<NumericPredictor name="_c91" coefficient="-8.279875416720111E-4"/>
			<NumericPredictor name="_c92" coefficient="-7.882249423331771E-4"/>
			<NumericPredictor name="_c93" coefficient="-8.49928720998579E-4"/>
			<NumericPredictor name="_c94" coefficient="-7.687351138867014E-4"/>
			<NumericPredictor name="_c95" coefficient="-6.250809679761502E-4"/>
			<NumericPredictor name="_c96" coefficient="-6.194918700942075E-4"/>
			<NumericPredictor name="_c97" coefficient="-5.821571121071349E-4"/>
			<NumericPredictor name="_c98" coefficient="-5.761176141747103E-4"/>
			<NumericPredictor name="_c99" coefficient="-5.325122354056227E-4"/>
			<NumericPredictor name="_c100" coefficient="-5.459063071123893E-4"/>
			<NumericPredictor name="_c101" coefficient="-6.154717881739774E-4"/>
			<NumericPredictor name="_c102" coefficient="-7.091309512159068E-4"/>
			<NumericPredictor name="_c103" coefficient="-7.31167713058033E-4"/>
			<NumericPredictor name="_c104" coefficient="-7.935916775644859E-4"/>
			<NumericPredictor name="_c105" coefficient="-9.135289915513229E-4"/>
			<NumericPredictor name="_c106" coefficient="-0.0011395120677814066"/>
			<NumericPredictor name="_c107" coefficient="-9.707326317189104E-4"/>
			<NumericPredictor name="_c108" coefficient="-7.014284457901594E-4"/>
			<NumericPredictor name="_c109" coefficient="-5.232752211786672E-4"/>
			<NumericPredictor name="_c110" coefficient="-0.0015615202570226229"/>
			<NumericPredictor name="_c113" coefficient="-0.0023006014231808573"/>
			<NumericPredictor name="_c114" coefficient="-0.0016568971388021547"/>
			<NumericPredictor name="_c115" coefficient="0.0017078499609069488"/>
			<NumericPredictor name="_c116" coefficient="-0.0012565489500432267"/>
			<NumericPredictor name="_c117" coefficient="-9.484049820734686E-4"/>
			<NumericPredictor name="_c118" coefficient="-6.933885811530563E-4"/>
			<NumericPredictor name="_c119" coefficient="-6.156360766318418E-4"/>
			<NumericPredictor name="_c120" coefficient="-5.853661782992529E-4"/>
			<NumericPredictor name="_c121" coefficient="-4.968083453019771E-4"/>
			<NumericPredictor name="_c122" coefficient="-4.284064335206278E-4"/>
			<NumericPredictor name="_c123" coefficient="-2.9907417408659527E-4"/>
			<NumericPredictor name="_c124" coefficient="-1.5737381350074334E-4"/>
			<NumericPredictor name="_c125" coefficient="-7.843586444046623E-6"/>
			<NumericPredictor name="_c126" coefficient="8.622741720104904E-5"/>
			<NumericPredictor name="_c127" coefficient="1.88111355288208E-4"/>
			<NumericPredictor name="_c128" coefficient="1.7609527769433972E-4"/>
			<NumericPredictor name="_c129" coefficient="1.3390227735545605E-4"/>
			<NumericPredictor name="_c130" coefficient="6.55023482313392E-5"/>
			<NumericPredictor name="_c131" coefficient="-3.820679202251746E-5"/>
			<NumericPredictor name="_c132" coefficient="-1.7227242718330943E-4"/>
			<NumericPredictor name="_c133" coefficient="-3.167298386808671E-4"/>
			<NumericPredictor name="_c134" coefficient="-4.156381680841577E-4"/>
			<NumericPredictor name="_c135" coefficient="-6.374546103902961E-4"/>
			<NumericPredictor name="_c136" coefficient="-7.755141174742088E-4"/>
			<NumericPredictor name="_c137" coefficient="-8.001116747438808E-4"/>
			<NumericPredictor name="_c138" coefficient="-9.294091941194963E-4"/>
			<NumericPredictor name="_c139" coefficient="-0.0016117986331879118"/>
			<NumericPredictor name="_c142" coefficient="-0.002212319673813986"/>
			<NumericPredictor name="_c143" coefficient="-3.930077827112876E-5"/>
			<NumericPredictor name="_c144" coefficient="-9.270669602060627E-4"/>
			<NumericPredictor name="_c145" coefficient="-7.211044641495066E-4"/>
			<NumericPredictor name="_c146" coefficient="-5.479204970858517E-4"/>
			<NumericPredictor name="_c147" coefficient="-5.41048859809191E-4"/>
			<NumericPredictor name="_c148" coefficient="-5.16433782370374E-4"/>
			<NumericPredictor name="_c149" coefficient="-4.274487303442668E-4"/>
			<NumericPredictor name="_c150" coefficient="-3.1158841887738076E-4"/>
			<NumericPredictor name="_c151" coefficient="-1.7413242003456512E-4"/>
			<NumericPredictor name="_c152" coefficient="-1.6336858621713087E-5"/>
			<NumericPredictor name="_c153" coefficient="1.848892744078965E-4"/>
			<NumericPredictor name="_c154" coefficient="3.221860563699983E-4"/>
			<NumericPredictor name="_c155" coefficient="4.3344729705026703E-4"/>
			<NumericPredictor name="_c156" coefficient="4.801327311213132E-4"/>
			<NumericPredictor name="_c157" coefficient="4.4336573778732937E-4"/>
			<NumericPredictor name="_c158" coefficient="3.413543673952565E-4"/>
			<NumericPredictor name="_c159" coefficient="1.9321542671759035E-4"/>
			<NumericPredictor name="_c160" coefficient="-5.186448504875197E-7"/>
			<NumericPredictor name="_c161" coefficient="-1.3902419063897508E-4"/>
			<NumericPredictor name="_c162" coefficient="-3.302978954938069E-4"/>
			<NumericPredictor name="_c163" coefficient="-5.858268572822041E-4"/>
			<NumericPredictor name="_c164" coefficient="-7.278209095523028E-4"/>
			<NumericPredictor name="_c165" coefficient="-9.416325827370581E-4"/>
			<NumericPredictor name="_c166" coefficient="-0.0010256057792666856"/>
			<NumericPredictor name="_c167" coefficient="-0.0021552196262828176"/>
			<NumericPredictor name="_c169" coefficient="-0.01737950648168389"/>
			<NumericPredictor name="_c170" coefficient="-0.001172102357715248"/>
			<NumericPredictor name="_c171" coefficient="-6.364011357962108E-4"/>
			<NumericPredictor name="_c172" coefficient="-6.725649882604761E-4"/>
			<NumericPredictor name="_c173" coefficient="-5.244411174895261E-4"/>
			<NumericPredictor name="_c174" coefficient="-5.133852772255452E-4"/>
			<NumericPredictor name="_c175" coefficient="-5.074490678139159E-4"/>
			<NumericPredictor name="_c176" coefficient="-4.8162936287454114E-4"/>
			<NumericPredictor name="_c177" coefficient="-4.111721982452705E-4"/>
			<NumericPredictor name="_c178" coefficient="-2.793355341202586E-4"/>
			<NumericPredictor name="_c179" coefficient="-1.2168782380299677E-4"/>
			<NumericPredictor name="_c180" coefficient="4.6560963211380734E-5"/>
			<NumericPredictor name="_c181" coefficient="2.184765320962399E-4"/>
			<NumericPredictor name="_c182" coefficient="3.3655985934706454E-4"/>
			<NumericPredictor name="_c183" coefficient="4.4723186672748565E-4"/>
			<NumericPredictor name="_c184" coefficient="5.374172080077218E-4"/>
			<NumericPredictor name="_c185" coefficient="5.656339819249285E-4"/>
			<NumericPredictor name="_c186" coefficient="4.892445094458171E-4"/>
			<NumericPredictor name="_c187" coefficient="3.230112854336911E-4"/>
			<NumericPredictor name="_c188" coefficient="1.5350272265057902E-4"/>
			<NumericPredictor name="_c189" coefficient="1.1857127484163786E-5"/>
			<NumericPredictor name="_c190" coefficient="-1.3425605591836304E-4"/>
			<NumericPredictor name="_c191" coefficient="-3.9907082785053195E-4"/>
			<NumericPredictor name="_c192" coefficient="-7.046207817589395E-4"/>
			<NumericPredictor name="_c193" coefficient="-8.835478958370975E-4"/>
			<NumericPredictor name="_c194" coefficient="-8.662759496118361E-4"/>
			<NumericPredictor name="_c195" coefficient="-6.807036928351642E-5"/>
			<NumericPredictor name="_c196" coefficient="-0.0017137892187289346"/>
			<NumericPredictor name="_c197" coefficient="-9.215729620912648E-4"/>
			<NumericPredictor name="_c198" coefficient="-6.02316864154262E-4"/>
			<NumericPredictor name="_c199" coefficient="-5.698307166269046E-4"/>
			<NumericPredictor name="_c200" coefficient="-6.438109202046711E-4"/>
			<NumericPredictor name="_c201" coefficient="-5.163903188381591E-4"/>
			<NumericPredictor name="_c202" coefficient="-5.165824510943395E-4"/>
			<NumericPredictor name="_c203" coefficient="-5.049060406092872E-4"/>
			<NumericPredictor name="_c204" coefficient="-4.7501250316622274E-4"/>
			<NumericPredictor name="_c205" coefficient="-3.540401925548747E-4"/>
			<NumericPredictor name="_c206" coefficient="-2.291362866693016E-4"/>
			<NumericPredictor name="_c207" coefficient="-6.927223641368631E-5"/>
			<NumericPredictor name="_c208" coefficient="8.248618452300775E-5"/>
			<NumericPredictor name="_c209" coefficient="2.0859286665262435E-4"/>
			<NumericPredictor name="_c210" coefficient="3.120509480909753E-4"/>
			<NumericPredictor name="_c211" coefficient="4.0576469541976623E-4"/>
			<NumericPredictor name="_c212" coefficient="5.081767822060954E-4"/>
			<NumericPredictor name="_c213" coefficient="6.09164926843254E-4"/>
			<NumericPredictor name="_c214" coefficient="5.949647755657214E-4"/>
			<NumericPredictor name="_c215" coefficient="4.519586126314318E-4"/>
			<NumericPredictor name="_c216" coefficient="2.623585849297776E-4"/>
			<NumericPredictor name="_c217" coefficient="9.466905130844587E-5"/>
			<NumericPredictor name="_c218" coefficient="-1.821548686087332E-5"/>
			<NumericPredictor name="_c219" coefficient="-2.213875107429428E-4"/>
			<NumericPredictor name="_c220" coefficient="-5.781931468560784E-4"/>
			<NumericPredictor name="_c221" coefficient="-8.708333883884259E-4"/>
			<NumericPredictor name="_c222" coefficient="-9.231276187820998E-4"/>
			<NumericPredictor name="_c223" coefficient="9.389954594884588E-4"/>
			<NumericPredictor name="_c224" coefficient="0.007199315125988738"/>
			<NumericPredictor name="_c225" coefficient="-5.172752076843275E-4"/>
			<NumericPredictor name="_c226" coefficient="-4.336637311539483E-4"/>
			<NumericPredictor name="_c227" coefficient="-5.201026073923192E-4"/>
			<NumericPredictor name="_c228" coefficient="-6.15613677619106E-4"/>
			<NumericPredictor name="_c229" coefficient="-5.556093482554814E-4"/>
			<NumericPredictor name="_c230" coefficient="-5.08699455446198E-4"/>
			<NumericPredictor name="_c231" coefficient="-4.76322095506979E-4"/>
			<NumericPredictor name="_c232" coefficient="-4.0086670562062025E-4"/>
			<NumericPredictor name="_c233" coefficient="-2.875078105598805E-4"/>
			<NumericPredictor name="_c234" coefficient="-1.4125904437821432E-4"/>
			<NumericPredictor name="_c235" coefficient="1.467148894847227E-5"/>
			<NumericPredictor name="_c236" coefficient="1.7652112180332688E-4"/>
			<NumericPredictor name="_c237" coefficient="2.6500022842168526E-4"/>
			<NumericPredictor name="_c238" coefficient="3.044436505876038E-4"/>
			<NumericPredictor name="_c239" coefficient="3.222709786703237E-4"/>
			<NumericPredictor name="_c240" coefficient="3.839030962485398E-4"/>
			<NumericPredictor name="_c241" coefficient="4.6236305031402604E-4"/>
			<NumericPredictor name="_c242" coefficient="5.609195878403682E-4"/>
			<NumericPredictor name="_c243" coefficient="5.321194256798011E-4"/>
			<NumericPredictor name="_c244" coefficient="4.113168070316187E-4"/>
			<NumericPredictor name="_c245" coefficient="2.2686222050267063E-4"/>
			<NumericPredictor name="_c246" coefficient="1.2305955125572687E-4"/>
			<NumericPredictor name="_c247" coefficient="-2.418204697116196E-5"/>
			<NumericPredictor name="_c248" coefficient="-4.67951184740386E-4"/>
			<NumericPredictor name="_c249" coefficient="-9.896947438995346E-4"/>
			<NumericPredictor name="_c250" coefficient="-9.702492252861047E-4"/>
			<NumericPredictor name="_c251" coefficient="-8.981203523534725E-4"/>
			<NumericPredictor name="_c252" coefficient="-6.148976637682799E-4"/>
			<NumericPredictor name="_c253" coefficient="-4.759012950437715E-4"/>
			<NumericPredictor name="_c254" coefficient="-4.401979692308331E-4"/>
			<NumericPredictor name="_c255" coefficient="-4.95505814150715E-4"/>
			<NumericPredictor name="_c256" coefficient="-6.026532554720598E-4"/>
			<NumericPredictor name="_c257" coefficient="-5.51246756339704E-4"/>
			<NumericPredictor name="_c258" coefficient="-4.861253496549352E-4"/>
			<NumericPredictor name="_c259" coefficient="-3.9292749124430885E-4"/>
			<NumericPredictor name="_c260" coefficient="-3.065781214898823E-4"/>
			<NumericPredictor name="_c261" coefficient="-1.6206894707205123E-4"/>
			<NumericPredictor name="_c262" coefficient="3.815205334260849E-6"/>
			<NumericPredictor name="_c263" coefficient="1.773162049496634E-4"/>
			<NumericPredictor name="_c264" coefficient="3.366680507734092E-4"/>
			<NumericPredictor name="_c265" coefficient="3.8388452809029033E-4"/>
			<NumericPredictor name="_c266" coefficient="2.757871795407487E-4"/>
			<NumericPredictor name="_c267" coefficient="1.341151347543954E-4"/>
			<NumericPredictor name="_c268" coefficient="7.620423104873385E-5"/>
			<NumericPredictor name="_c269" coefficient="1.660148106694439E-4"/>
			<NumericPredictor name="_c270" coefficient="3.8676694807484425E-4"/>
			<NumericPredictor name="_c271" coefficient="5.380675623890605E-4"/>
			<NumericPredictor name="_c272" coefficient="5.300803880357694E-4"/>
			<NumericPredictor name="_c273" coefficient="4.127642329913099E-4"/>
			<NumericPredictor name="_c274" coefficient="3.482927196976884E-4"/>
			<NumericPredictor name="_c275" coefficient="3.0431936065872505E-4"/>
			<NumericPredictor name="_c276" coefficient="-1.9500963885115438E-4"/>
			<NumericPredictor name="_c277" coefficient="-0.0012480054338608853"/>
			<NumericPredictor name="_c278" coefficient="-0.0012853046013288402"/>
			<NumericPredictor name="_c279" coefficient="-0.001011039079145781"/>
			<NumericPredictor name="_c280" coefficient="-4.2609872040147526E-4"/>
			<NumericPredictor name="_c281" coefficient="-4.4228546955860966E-4"/>
			<NumericPredictor name="_c282" coefficient="-3.350169787189975E-4"/>
			<NumericPredictor name="_c283" coefficient="-5.765388131391946E-4"/>
			<NumericPredictor name="_c284" coefficient="-6.35209824321287E-4"/>
			<NumericPredictor name="_c285" coefficient="-5.287868437609716E-4"/>
			<NumericPredictor name="_c286" coefficient="-4.1841591245385455E-4"/>
			<NumericPredictor name="_c287" coefficient="-2.6754309668664927E-4"/>
			<NumericPredictor name="_c288" coefficient="-1.6617745555072905E-4"/>
			<NumericPredictor name="_c289" coefficient="-5.334398479626635E-6"/>
			<NumericPredictor name="_c290" coefficient="1.7554830355430396E-4"/>
			<NumericPredictor name="_c291" coefficient="3.899958042544013E-4"/>
			<NumericPredictor name="_c292" coefficient="4.610578609097663E-4"/>
			<NumericPredictor name="_c293" coefficient="3.3563418327762134E-4"/>
			<NumericPredictor name="_c294" coefficient="5.240750061554913E-5"/>
			<NumericPredictor name="_c295" coefficient="-2.3993146262132637E-4"/>
			<NumericPredictor name="_c296" coefficient="-3.6395193386450124E-4"/>
			<NumericPredictor name="_c297" coefficient="-2.3015057460912597E-4"/>
			<NumericPredictor name="_c298" coefficient="1.0528264499610176E-4"/>
			<NumericPredictor name="_c299" coefficient="4.341365659029784E-4"/>
			<NumericPredictor name="_c300" coefficient="6.228650776580956E-4"/>
			<NumericPredictor name="_c301" coefficient="6.292820966987559E-4"/>
			<NumericPredictor name="_c302" coefficient="6.913121463747226E-4"/>
			<NumericPredictor name="_c303" coefficient="7.965393117917108E-4"/>
			<NumericPredictor name="_c304" coefficient="2.4031278641778404E-4"/>
			<NumericPredictor name="_c305" coefficient="-0.0015732483056887308"/>
			<NumericPredictor name="_c306" coefficient="-0.0015750975997722678"/>
			<NumericPredictor name="_c307" coefficient="-0.0010270502718773963"/>
			<NumericPredictor name="_c308" coefficient="-6.927283111257374E-4"/>
			<NumericPredictor name="_c309" coefficient="-2.764850470142351E-4"/>
			<NumericPredictor name="_c310" coefficient="-5.05425567383591E-4"/>
			<NumericPredictor name="_c311" coefficient="-6.955836099842703E-4"/>
			<NumericPredictor name="_c312" coefficient="-8.967558035774006E-4"/>
			<NumericPredictor name="_c313" coefficient="-5.705863670757833E-4"/>
			<NumericPredictor name="_c314" coefficient="-2.475192244928975E-4"/>
			<NumericPredictor name="_c315" coefficient="-1.037704727403662E-4"/>
			<NumericPredictor name="_c316" coefficient="-6.459981302963104E-6"/>
			<NumericPredictor name="_c317" coefficient="1.434971046550955E-4"/>
			<NumericPredictor name="_c318" coefficient="3.520066858437241E-4"/>
			<NumericPredictor name="_c319" coefficient="4.7167415757031796E-4"/>
			<NumericPredictor name="_c320" coefficient="3.3678850664829523E-4"/>
			<NumericPredictor name="_c321" coefficient="1.7985920882788004E-6"/>
			<NumericPredictor name="_c322" coefficient="-4.342360606452931E-4"/>
			<NumericPredictor name="_c323" coefficient="-7.194460129760786E-4"/>
			<NumericPredictor name="_c324" coefficient="-8.342941877960873E-4"/>
			<NumericPredictor name="_c325" coefficient="-6.572487751968669E-4"/>
			<NumericPredictor name="_c326" coefficient="-2.322228903795582E-4"/>
			<NumericPredictor name="_c327" coefficient="2.8108515314487025E-4"/>
			<NumericPredictor name="_c328" coefficient="6.492765864501677E-4"/>
			<NumericPredictor name="_c329" coefficient="8.392036731631432E-4"/>
			<NumericPredictor name="_c330" coefficient="9.720992986598203E-4"/>
			<NumericPredictor name="_c331" coefficient="0.00119285992420158"/>
			<NumericPredictor name="_c332" coefficient="8.29611602698714E-4"/>
			<NumericPredictor name="_c333" coefficient="-0.0019638388342395974"/>
			<NumericPredictor name="_c334" coefficient="-0.0014966976880665794"/>
			<NumericPredictor name="_c335" coefficient="-0.001399260307364369"/>
			<NumericPredictor name="_c336" coefficient="-6.023616823405441E-4"/>
			<NumericPredictor name="_c337" coefficient="-4.300264563324616E-4"/>
			<NumericPredictor name="_c338" coefficient="-5.641731358476025E-4"/>
			<NumericPredictor name="_c339" coefficient="-9.050915973452385E-4"/>
			<NumericPredictor name="_c340" coefficient="-0.001190832010760591"/>
			<NumericPredictor name="_c341" coefficient="-3.938057905939552E-4"/>
			<NumericPredictor name="_c342" coefficient="-2.589897595523484E-5"/>
			<NumericPredictor name="_c343" coefficient="6.961414606031123E-5"/>
			<NumericPredictor name="_c344" coefficient="1.4129242372471227E-4"/>
			<NumericPredictor name="_c345" coefficient="3.135018020938693E-4"/>
			<NumericPredictor name="_c346" coefficient="4.785724557569921E-4"/>
			<NumericPredictor name="_c347" coefficient="3.7612957780580917E-4"/>
			<NumericPredictor name="_c348" coefficient="2.4589459472812948E-5"/>
			<NumericPredictor name="_c349" coefficient="-4.962038166006758E-4"/>
			<NumericPredictor name="_c350" coefficient="-8.620718386310416E-4"/>
			<NumericPredictor name="_c351" coefficient="-0.0010732163317896796"/>
			<NumericPredictor name="_c352" coefficient="-0.0011850889884056067"/>
			<NumericPredictor name="_c353" coefficient="-9.683394602165427E-4"/>
			<NumericPredictor name="_c354" coefficient="-4.5267886423569747E-4"/>
			<NumericPredictor name="_c355" coefficient="1.414348003908494E-4"/>
			<NumericPredictor name="_c356" coefficient="6.351282602688414E-4"/>
			<NumericPredictor name="_c357" coefficient="9.398361422156801E-4"/>
			<NumericPredictor name="_c358" coefficient="0.0011642203068828797"/>
			<NumericPredictor name="_c359" coefficient="0.0013800634178191148"/>
			<NumericPredictor name="_c360" coefficient="0.0011874564817525044"/>
			<NumericPredictor name="_c361" coefficient="-0.0013251240974364116"/>
			<NumericPredictor name="_c362" coefficient="-0.0016241508635634453"/>
			<NumericPredictor name="_c363" coefficient="-0.0012698544145011586"/>
			<NumericPredictor name="_c364" coefficient="-0.0027569188779951854"/>
			<NumericPredictor name="_c365" coefficient="8.96063553066459E-4"/>
			<NumericPredictor name="_c366" coefficient="-3.982878127759141E-4"/>
			<NumericPredictor name="_c367" coefficient="-0.0012366935522599228"/>
			<NumericPredictor name="_c368" coefficient="-0.0011361388813509662"/>
			<NumericPredictor name="_c369" coefficient="-1.2543549868855542E-4"/>
			<NumericPredictor name="_c370" coefficient="1.656255886985334E-4"/>
			<NumericPredictor name="_c371" coefficient="2.5314539936004474E-4"/>
			<NumericPredictor name="_c372" coefficient="3.174124672821629E-4"/>
			<NumericPredictor name="_c373" coefficient="4.793886283112595E-4"/>
			<NumericPredictor name="_c374" coefficient="4.831698189685628E-4"/>
			<NumericPredictor name="_c375" coefficient="1.4358586209212005E-4"/>
			<NumericPredictor name="_c376" coefficient="-3.9881381081969175E-4"/>
			<NumericPredictor name="_c377" coefficient="-9.192673577821908E-4"/>
			<NumericPredictor name="_c378" coefficient="-0.0011374567747129381"/>
			<NumericPredictor name="_c379" coefficient="-0.0013563225561012088"/>
			<NumericPredictor name="_c380" coefficient="-0.0014181790805247805"/>
			<NumericPredictor name="_c381" coefficient="-0.001090387440087138"/>
			<NumericPredictor name="_c382" coefficient="-5.181904253338537E-4"/>
			<NumericPredictor name="_c383" coefficient="8.314514688171998E-5"/>
			<NumericPredictor name="_c384" coefficient="6.092518854658878E-4"/>
			<NumericPredictor name="_c385" coefficient="9.358297716635811E-4"/>
			<NumericPredictor name="_c386" coefficient="0.0011489687784706785"/>
			<NumericPredictor name="_c387" coefficient="0.0012607975538889578"/>
			<NumericPredictor name="_c388" coefficient="0.0010437547884584464"/>
			<NumericPredictor name="_c389" coefficient="-5.819971632582055E-4"/>
			<NumericPredictor name="_c390" coefficient="-0.0012767908491442333"/>
			<NumericPredictor name="_c391" coefficient="-9.188477338019618E-4"/>
			<NumericPredictor name="_c392" coefficient="-0.001345065030581968"/>
			<NumericPredictor name="_c393" coefficient="-9.336023409236326E-4"/>
			<NumericPredictor name="_c394" coefficient="-8.780895136102753E-4"/>
			<NumericPredictor name="_c395" coefficient="-0.002047453836497052"/>
			<NumericPredictor name="_c396" coefficient="-8.836150213137894E-4"/>
			<NumericPredictor name="_c397" coefficient="1.4921177491737935E-4"/>
			<NumericPredictor name="_c398" coefficient="3.14565852330018E-4"/>
			<NumericPredictor name="_c399" coefficient="4.262613137931037E-4"/>
			<NumericPredictor name="_c400" coefficient="5.139688485995216E-4"/>
			<NumericPredictor name="_c401" coefficient="5.881810602548893E-4"/>
